digraph Tree {
node [shape=box] ;
0 [label="song_popularity <= 158387.0\nmse = 0.089\nsamples = 14926\nvalue = 0.27"] ;
1 [label="song_popularity <= 108932.5\nmse = 0.117\nsamples = 1524\nvalue = 0.462"] ;
0 -> 1 [labeldistance=2.5, labelangle=45, headlabel="True"] ;
2 [label="song_popularity <= 70345.5\nmse = 0.105\nsamples = 211\nvalue = 0.612"] ;
1 -> 2 ;
3 [label="song_popularity <= 33646.5\nmse = 0.066\nsamples = 35\nvalue = 0.747"] ;
2 -> 3 ;
4 [label="song_popularity <= 19093.0\nmse = 0.044\nsamples = 3\nvalue = 0.417"] ;
3 -> 4 ;
5 [label="mse = 0.0\nsamples = 1\nvalue = 0.7"] ;
4 -> 5 ;
6 [label="song_popularity <= 28779.5\nmse = 0.006\nsamples = 2\nvalue = 0.275"] ;
4 -> 6 ;
7 [label="mse = 0.0\nsamples = 1\nvalue = 0.196"] ;
6 -> 7 ;
8 [label="mse = 0.0\nsamples = 1\nvalue = 0.355"] ;
6 -> 8 ;
9 [label="song_popularity <= 66850.5\nmse = 0.057\nsamples = 32\nvalue = 0.778"] ;
3 -> 9 ;
10 [label="song_popularity <= 66453.5\nmse = 0.068\nsamples = 23\nvalue = 0.733"] ;
9 -> 10 ;
11 [label="song_popularity <= 64098.0\nmse = 0.046\nsamples = 22\nvalue = 0.766"] ;
10 -> 11 ;
12 [label="song_popularity <= 50540.5\nmse = 0.02\nsamples = 15\nvalue = 0.81"] ;
11 -> 12 ;
13 [label="song_popularity <= 42967.0\nmse = 0.004\nsamples = 3\nvalue = 0.889"] ;
12 -> 13 ;
14 [label="mse = 0.0\nsamples = 1\nvalue = 0.826"] ;
13 -> 14 ;
15 [label="song_popularity <= 50261.0\nmse = 0.003\nsamples = 2\nvalue = 0.92"] ;
13 -> 15 ;
16 [label="mse = 0.0\nsamples = 1\nvalue = 0.971"] ;
15 -> 16 ;
17 [label="mse = 0.0\nsamples = 1\nvalue = 0.87"] ;
15 -> 17 ;
18 [label="song_popularity <= 53802.5\nmse = 0.022\nsamples = 12\nvalue = 0.79"] ;
12 -> 18 ;
19 [label="song_popularity <= 51819.5\nmse = 0.004\nsamples = 2\nvalue = 0.607"] ;
18 -> 19 ;
20 [label="mse = 0.0\nsamples = 1\nvalue = 0.673"] ;
19 -> 20 ;
21 [label="mse = -0.0\nsamples = 1\nvalue = 0.541"] ;
19 -> 21 ;
22 [label="song_popularity <= 55880.5\nmse = 0.017\nsamples = 10\nvalue = 0.826"] ;
18 -> 22 ;
23 [label="song_popularity <= 54876.0\nmse = 0.0\nsamples = 3\nvalue = 0.963"] ;
22 -> 23 ;
24 [label="mse = 0.0\nsamples = 1\nvalue = 0.939"] ;
23 -> 24 ;
25 [label="song_popularity <= 55466.5\nmse = 0.0\nsamples = 2\nvalue = 0.974"] ;
23 -> 25 ;
26 [label="mse = 0.0\nsamples = 1\nvalue = 0.974"] ;
25 -> 26 ;
27 [label="mse = 0.0\nsamples = 1\nvalue = 0.975"] ;
25 -> 27 ;
28 [label="song_popularity <= 63635.0\nmse = 0.013\nsamples = 7\nvalue = 0.768"] ;
22 -> 28 ;
29 [label="song_popularity <= 63326.5\nmse = 0.011\nsamples = 6\nvalue = 0.742"] ;
28 -> 29 ;
30 [label="song_popularity <= 58666.0\nmse = 0.01\nsamples = 5\nvalue = 0.761"] ;
29 -> 30 ;
31 [label="song_popularity <= 56886.5\nmse = 0.007\nsamples = 2\nvalue = 0.71"] ;
30 -> 31 ;
32 [label="mse = 0.0\nsamples = 1\nvalue = 0.793"] ;
31 -> 32 ;
33 [label="mse = -0.0\nsamples = 1\nvalue = 0.627"] ;
31 -> 33 ;
34 [label="song_popularity <= 59800.0\nmse = 0.01\nsamples = 3\nvalue = 0.795"] ;
30 -> 34 ;
35 [label="mse = 0.0\nsamples = 1\nvalue = 0.902"] ;
34 -> 35 ;
36 [label="song_popularity <= 61540.0\nmse = 0.006\nsamples = 2\nvalue = 0.742"] ;
34 -> 36 ;
37 [label="mse = 0.0\nsamples = 1\nvalue = 0.662"] ;
36 -> 37 ;
38 [label="mse = 0.0\nsamples = 1\nvalue = 0.822"] ;
36 -> 38 ;
39 [label="mse = -0.0\nsamples = 1\nvalue = 0.645"] ;
29 -> 39 ;
40 [label="mse = 0.0\nsamples = 1\nvalue = 0.923"] ;
28 -> 40 ;
41 [label="song_popularity <= 64502.5\nmse = 0.089\nsamples = 7\nvalue = 0.673"] ;
11 -> 41 ;
42 [label="mse = 0.0\nsamples = 1\nvalue = 0.148"] ;
41 -> 42 ;
43 [label="song_popularity <= 65126.0\nmse = 0.05\nsamples = 6\nvalue = 0.76"] ;
41 -> 43 ;
44 [label="song_popularity <= 64612.5\nmse = 0.015\nsamples = 3\nvalue = 0.853"] ;
43 -> 44 ;
45 [label="mse = 0.0\nsamples = 1\nvalue = 0.905"] ;
44 -> 45 ;
46 [label="mse = 0.02\nsamples = 2\nvalue = 0.827"] ;
44 -> 46 ;
47 [label="song_popularity <= 65813.0\nmse = 0.068\nsamples = 3\nvalue = 0.668"] ;
43 -> 47 ;
48 [label="mse = 0.0\nsamples = 1\nvalue = 0.314"] ;
47 -> 48 ;
49 [label="song_popularity <= 66149.5\nmse = 0.008\nsamples = 2\nvalue = 0.845"] ;
47 -> 49 ;
50 [label="mse = 0.0\nsamples = 1\nvalue = 0.936"] ;
49 -> 50 ;
51 [label="mse = 0.0\nsamples = 1\nvalue = 0.754"] ;
49 -> 51 ;
52 [label="mse = 0.0\nsamples = 1\nvalue = 0.0"] ;
10 -> 52 ;
53 [label="song_popularity <= 69744.0\nmse = 0.009\nsamples = 9\nvalue = 0.894"] ;
9 -> 53 ;
54 [label="song_popularity <= 67692.0\nmse = 0.008\nsamples = 7\nvalue = 0.867"] ;
53 -> 54 ;
55 [label="song_popularity <= 67192.0\nmse = 0.0\nsamples = 2\nvalue = 0.98"] ;
54 -> 55 ;
56 [label="mse = 0.0\nsamples = 1\nvalue = 0.995"] ;
55 -> 56 ;
57 [label="mse = -0.0\nsamples = 1\nvalue = 0.964"] ;
55 -> 57 ;
58 [label="song_popularity <= 68830.0\nmse = 0.004\nsamples = 5\nvalue = 0.822"] ;
54 -> 58 ;
59 [label="song_popularity <= 68285.5\nmse = 0.003\nsamples = 3\nvalue = 0.862"] ;
58 -> 59 ;
60 [label="mse = 0.0\nsamples = 1\nvalue = 0.785"] ;
59 -> 60 ;
61 [label="song_popularity <= 68602.5\nmse = 0.0\nsamples = 2\nvalue = 0.9"] ;
59 -> 61 ;
62 [label="mse = 0.0\nsamples = 1\nvalue = 0.904"] ;
61 -> 62 ;
63 [label="mse = 0.0\nsamples = 1\nvalue = 0.896"] ;
61 -> 63 ;
64 [label="song_popularity <= 69361.5\nmse = 0.0\nsamples = 2\nvalue = 0.762"] ;
58 -> 64 ;
65 [label="mse = 0.0\nsamples = 1\nvalue = 0.763"] ;
64 -> 65 ;
66 [label="mse = -0.0\nsamples = 1\nvalue = 0.761"] ;
64 -> 66 ;
67 [label="song_popularity <= 69822.0\nmse = 0.0\nsamples = 2\nvalue = 0.991"] ;
53 -> 67 ;
68 [label="mse = 0.0\nsamples = 1\nvalue = 0.996"] ;
67 -> 68 ;
69 [label="mse = -0.0\nsamples = 1\nvalue = 0.986"] ;
67 -> 69 ;
70 [label="song_popularity <= 108081.5\nmse = 0.108\nsamples = 176\nvalue = 0.585"] ;
2 -> 70 ;
71 [label="song_popularity <= 96044.5\nmse = 0.108\nsamples = 172\nvalue = 0.578"] ;
70 -> 71 ;
72 [label="song_popularity <= 94860.0\nmse = 0.098\nsamples = 95\nvalue = 0.621"] ;
71 -> 72 ;
73 [label="song_popularity <= 94500.5\nmse = 0.104\nsamples = 82\nvalue = 0.591"] ;
72 -> 73 ;
74 [label="song_popularity <= 93874.0\nmse = 0.1\nsamples = 80\nvalue = 0.602"] ;
73 -> 74 ;
75 [label="song_popularity <= 92806.0\nmse = 0.1\nsamples = 77\nvalue = 0.589"] ;
74 -> 75 ;
76 [label="song_popularity <= 82625.0\nmse = 0.094\nsamples = 72\nvalue = 0.617"] ;
75 -> 76 ;
77 [label="song_popularity <= 81881.5\nmse = 0.1\nsamples = 33\nvalue = 0.574"] ;
76 -> 77 ;
78 [label="song_popularity <= 71851.5\nmse = 0.094\nsamples = 30\nvalue = 0.611"] ;
77 -> 78 ;
79 [label="song_popularity <= 71378.0\nmse = 0.087\nsamples = 3\nvalue = 0.454"] ;
78 -> 79 ;
80 [label="song_popularity <= 70945.5\nmse = 0.007\nsamples = 2\nvalue = 0.656"] ;
79 -> 80 ;
81 [label="mse = 0.0\nsamples = 1\nvalue = 0.571"] ;
80 -> 81 ;
82 [label="mse = 0.0\nsamples = 1\nvalue = 0.741"] ;
80 -> 82 ;
83 [label="mse = 0.0\nsamples = 1\nvalue = 0.05"] ;
79 -> 83 ;
84 [label="song_popularity <= 72684.5\nmse = 0.092\nsamples = 27\nvalue = 0.628"] ;
78 -> 84 ;
85 [label="song_popularity <= 72291.5\nmse = 0.046\nsamples = 3\nvalue = 0.8"] ;
84 -> 85 ;
86 [label="mse = 0.045\nsamples = 2\nvalue = 0.71"] ;
85 -> 86 ;
87 [label="mse = -0.0\nsamples = 1\nvalue = 0.979"] ;
85 -> 87 ;
88 [label="song_popularity <= 72879.5\nmse = 0.094\nsamples = 24\nvalue = 0.607"] ;
84 -> 88 ;
89 [label="mse = 0.0\nsamples = 1\nvalue = 0.295"] ;
88 -> 89 ;
90 [label="song_popularity <= 73079.0\nmse = 0.093\nsamples = 23\nvalue = 0.62"] ;
88 -> 90 ;
91 [label="mse = 0.0\nsamples = 1\nvalue = 0.996"] ;
90 -> 91 ;
92 [label="song_popularity <= 75387.5\nmse = 0.091\nsamples = 22\nvalue = 0.603"] ;
90 -> 92 ;
93 [label="song_popularity <= 74997.5\nmse = 0.091\nsamples = 7\nvalue = 0.488"] ;
92 -> 93 ;
94 [label="song_popularity <= 74192.5\nmse = 0.063\nsamples = 5\nvalue = 0.608"] ;
93 -> 94 ;
95 [label="song_popularity <= 73481.0\nmse = 0.053\nsamples = 3\nvalue = 0.463"] ;
94 -> 95 ;
96 [label="mse = 0.0\nsamples = 1\nvalue = 0.271"] ;
95 -> 96 ;
97 [label="song_popularity <= 73925.5\nmse = 0.052\nsamples = 2\nvalue = 0.559"] ;
95 -> 97 ;
98 [label="mse = 0.0\nsamples = 1\nvalue = 0.788"] ;
97 -> 98 ;
99 [label="mse = 0.0\nsamples = 1\nvalue = 0.33"] ;
97 -> 99 ;
100 [label="song_popularity <= 74540.0\nmse = 0.0\nsamples = 2\nvalue = 0.825"] ;
94 -> 100 ;
101 [label="mse = 0.0\nsamples = 1\nvalue = 0.829"] ;
100 -> 101 ;
102 [label="mse = 0.0\nsamples = 1\nvalue = 0.821"] ;
100 -> 102 ;
103 [label="song_popularity <= 75293.0\nmse = 0.034\nsamples = 2\nvalue = 0.189"] ;
93 -> 103 ;
104 [label="mse = 0.0\nsamples = 1\nvalue = 0.005"] ;
103 -> 104 ;
105 [label="mse = 0.0\nsamples = 1\nvalue = 0.373"] ;
103 -> 105 ;
106 [label="song_popularity <= 80501.5\nmse = 0.082\nsamples = 15\nvalue = 0.657"] ;
92 -> 106 ;
107 [label="song_popularity <= 78990.0\nmse = 0.082\nsamples = 11\nvalue = 0.714"] ;
106 -> 107 ;
108 [label="song_popularity <= 78308.5\nmse = 0.094\nsamples = 8\nvalue = 0.641"] ;
107 -> 108 ;
109 [label="song_popularity <= 76623.0\nmse = 0.065\nsamples = 7\nvalue = 0.714"] ;
108 -> 109 ;
110 [label="song_popularity <= 75602.0\nmse = 0.044\nsamples = 4\nvalue = 0.8"] ;
109 -> 110 ;
111 [label="mse = 0.0\nsamples = 1\nvalue = 0.949"] ;
110 -> 111 ;
112 [label="song_popularity <= 76044.5\nmse = 0.048\nsamples = 3\nvalue = 0.75"] ;
110 -> 112 ;
113 [label="mse = 0.07\nsamples = 2\nvalue = 0.72"] ;
112 -> 113 ;
114 [label="mse = 0.0\nsamples = 1\nvalue = 0.808"] ;
112 -> 114 ;
115 [label="song_popularity <= 77497.0\nmse = 0.07\nsamples = 3\nvalue = 0.599"] ;
109 -> 115 ;
116 [label="song_popularity <= 77139.5\nmse = 0.016\nsamples = 2\nvalue = 0.427"] ;
115 -> 116 ;
117 [label="mse = 0.0\nsamples = 1\nvalue = 0.554"] ;
116 -> 117 ;
118 [label="mse = 0.0\nsamples = 1\nvalue = 0.3"] ;
116 -> 118 ;
119 [label="mse = -0.0\nsamples = 1\nvalue = 0.943"] ;
115 -> 119 ;
120 [label="mse = -0.0\nsamples = 1\nvalue = 0.133"] ;
108 -> 120 ;
121 [label="song_popularity <= 80165.5\nmse = 0.001\nsamples = 3\nvalue = 0.907"] ;
107 -> 121 ;
122 [label="song_popularity <= 79512.0\nmse = 0.0\nsamples = 2\nvalue = 0.93"] ;
121 -> 122 ;
123 [label="mse = 0.0\nsamples = 1\nvalue = 0.915"] ;
122 -> 123 ;
124 [label="mse = 0.0\nsamples = 1\nvalue = 0.944"] ;
122 -> 124 ;
125 [label="mse = -0.0\nsamples = 1\nvalue = 0.862"] ;
121 -> 125 ;
126 [label="song_popularity <= 80836.0\nmse = 0.046\nsamples = 4\nvalue = 0.501"] ;
106 -> 126 ;
127 [label="mse = 0.0\nsamples = 1\nvalue = 0.146"] ;
126 -> 127 ;
128 [label="song_popularity <= 81053.0\nmse = 0.006\nsamples = 3\nvalue = 0.62"] ;
126 -> 128 ;
129 [label="mse = 0.0\nsamples = 1\nvalue = 0.516"] ;
128 -> 129 ;
130 [label="song_popularity <= 81382.0\nmse = 0.001\nsamples = 2\nvalue = 0.672"] ;
128 -> 130 ;
131 [label="mse = 0.0\nsamples = 1\nvalue = 0.696"] ;
130 -> 131 ;
132 [label="mse = 0.0\nsamples = 1\nvalue = 0.647"] ;
130 -> 132 ;
133 [label="song_popularity <= 82177.5\nmse = 0.013\nsamples = 3\nvalue = 0.209"] ;
77 -> 133 ;
134 [label="mse = 0.0\nsamples = 1\nvalue = 0.06"] ;
133 -> 134 ;
135 [label="song_popularity <= 82375.0\nmse = 0.003\nsamples = 2\nvalue = 0.283"] ;
133 -> 135 ;
136 [label="mse = 0.0\nsamples = 1\nvalue = 0.339"] ;
135 -> 136 ;
137 [label="mse = -0.0\nsamples = 1\nvalue = 0.227"] ;
135 -> 137 ;
138 [label="song_popularity <= 84799.5\nmse = 0.085\nsamples = 39\nvalue = 0.653"] ;
76 -> 138 ;
139 [label="song_popularity <= 84185.5\nmse = 0.042\nsamples = 10\nvalue = 0.779"] ;
138 -> 139 ;
140 [label="song_popularity <= 83750.0\nmse = 0.047\nsamples = 8\nvalue = 0.746"] ;
139 -> 140 ;
141 [label="song_popularity <= 83099.5\nmse = 0.021\nsamples = 5\nvalue = 0.841"] ;
140 -> 141 ;
142 [label="song_popularity <= 82807.5\nmse = 0.027\nsamples = 3\nvalue = 0.787"] ;
141 -> 142 ;
143 [label="song_popularity <= 82771.0\nmse = 0.001\nsamples = 2\nvalue = 0.903"] ;
142 -> 143 ;
144 [label="mse = 0.0\nsamples = 1\nvalue = 0.931"] ;
143 -> 144 ;
145 [label="mse = 0.0\nsamples = 1\nvalue = 0.874"] ;
143 -> 145 ;
146 [label="mse = 0.0\nsamples = 1\nvalue = 0.557"] ;
142 -> 146 ;
147 [label="song_popularity <= 83438.0\nmse = 0.0\nsamples = 2\nvalue = 0.921"] ;
141 -> 147 ;
148 [label="mse = 0.0\nsamples = 1\nvalue = 0.91"] ;
147 -> 148 ;
149 [label="mse = -0.0\nsamples = 1\nvalue = 0.931"] ;
147 -> 149 ;
150 [label="mse = 0.05\nsamples = 3\nvalue = 0.589"] ;
140 -> 150 ;
151 [label="song_popularity <= 84538.0\nmse = 0.0\nsamples = 2\nvalue = 0.911"] ;
139 -> 151 ;
152 [label="mse = 0.0\nsamples = 1\nvalue = 0.922"] ;
151 -> 152 ;
153 [label="mse = 0.0\nsamples = 1\nvalue = 0.9"] ;
151 -> 153 ;
154 [label="song_popularity <= 85581.0\nmse = 0.093\nsamples = 29\nvalue = 0.61"] ;
138 -> 154 ;
155 [label="song_popularity <= 85255.5\nmse = 0.105\nsamples = 4\nvalue = 0.43"] ;
154 -> 155 ;
156 [label="song_popularity <= 85021.0\nmse = 0.075\nsamples = 3\nvalue = 0.556"] ;
155 -> 156 ;
157 [label="song_popularity <= 84936.5\nmse = 0.004\nsamples = 2\nvalue = 0.366"] ;
156 -> 157 ;
158 [label="mse = 0.0\nsamples = 1\nvalue = 0.301"] ;
157 -> 158 ;
159 [label="mse = 0.0\nsamples = 1\nvalue = 0.431"] ;
157 -> 159 ;
160 [label="mse = -0.0\nsamples = 1\nvalue = 0.937"] ;
156 -> 160 ;
161 [label="mse = 0.0\nsamples = 1\nvalue = 0.05"] ;
155 -> 161 ;
162 [label="song_popularity <= 87197.0\nmse = 0.085\nsamples = 25\nvalue = 0.638"] ;
154 -> 162 ;
163 [label="song_popularity <= 86770.0\nmse = 0.031\nsamples = 7\nvalue = 0.785"] ;
162 -> 163 ;
164 [label="song_popularity <= 86024.0\nmse = 0.031\nsamples = 4\nvalue = 0.694"] ;
163 -> 164 ;
165 [label="mse = 0.0\nsamples = 1\nvalue = 0.876"] ;
164 -> 165 ;
166 [label="song_popularity <= 86521.5\nmse = 0.026\nsamples = 3\nvalue = 0.633"] ;
164 -> 166 ;
167 [label="mse = 0.0\nsamples = 1\nvalue = 0.587"] ;
166 -> 167 ;
168 [label="mse = 0.038\nsamples = 2\nvalue = 0.656"] ;
166 -> 168 ;
169 [label="song_popularity <= 87061.0\nmse = 0.005\nsamples = 3\nvalue = 0.906"] ;
163 -> 169 ;
170 [label="song_popularity <= 86915.5\nmse = 0.003\nsamples = 2\nvalue = 0.869"] ;
169 -> 170 ;
171 [label="mse = 0.0\nsamples = 1\nvalue = 0.924"] ;
170 -> 171 ;
172 [label="mse = 0.0\nsamples = 1\nvalue = 0.814"] ;
170 -> 172 ;
173 [label="mse = -0.0\nsamples = 1\nvalue = 0.979"] ;
169 -> 173 ;
174 [label="song_popularity <= 87896.5\nmse = 0.095\nsamples = 18\nvalue = 0.581"] ;
162 -> 174 ;
175 [label="mse = 0.0\nsamples = 1\nvalue = 0.114"] ;
174 -> 175 ;
176 [label="song_popularity <= 91404.5\nmse = 0.087\nsamples = 17\nvalue = 0.609"] ;
174 -> 176 ;
177 [label="song_popularity <= 90290.0\nmse = 0.047\nsamples = 7\nvalue = 0.705"] ;
176 -> 177 ;
178 [label="song_popularity <= 89873.5\nmse = 0.061\nsamples = 4\nvalue = 0.616"] ;
177 -> 178 ;
179 [label="song_popularity <= 88900.5\nmse = 0.012\nsamples = 3\nvalue = 0.747"] ;
178 -> 179 ;
180 [label="mse = 0.0\nsamples = 1\nvalue = 0.594"] ;
179 -> 180 ;
181 [label="song_popularity <= 89413.0\nmse = 0.001\nsamples = 2\nvalue = 0.824"] ;
179 -> 181 ;
182 [label="mse = 0.0\nsamples = 1\nvalue = 0.79"] ;
181 -> 182 ;
183 [label="mse = -0.0\nsamples = 1\nvalue = 0.857"] ;
181 -> 183 ;
184 [label="mse = 0.0\nsamples = 1\nvalue = 0.222"] ;
178 -> 184 ;
185 [label="song_popularity <= 90516.0\nmse = 0.004\nsamples = 3\nvalue = 0.825"] ;
177 -> 185 ;
186 [label="mse = 0.0\nsamples = 1\nvalue = 0.911"] ;
185 -> 186 ;
187 [label="song_popularity <= 90998.0\nmse = 0.0\nsamples = 2\nvalue = 0.782"] ;
185 -> 187 ;
188 [label="mse = 0.0\nsamples = 1\nvalue = 0.794"] ;
187 -> 188 ;
189 [label="mse = -0.0\nsamples = 1\nvalue = 0.769"] ;
187 -> 189 ;
190 [label="song_popularity <= 91897.0\nmse = 0.103\nsamples = 10\nvalue = 0.541"] ;
176 -> 190 ;
191 [label="song_popularity <= 91772.0\nmse = 0.06\nsamples = 3\nvalue = 0.269"] ;
190 -> 191 ;
192 [label="song_popularity <= 91608.0\nmse = 0.038\nsamples = 2\nvalue = 0.4"] ;
191 -> 192 ;
193 [label="mse = 0.0\nsamples = 1\nvalue = 0.206"] ;
192 -> 193 ;
194 [label="mse = 0.0\nsamples = 1\nvalue = 0.595"] ;
192 -> 194 ;
195 [label="mse = 0.0\nsamples = 1\nvalue = 0.005"] ;
191 -> 195 ;
196 [label="song_popularity <= 92291.5\nmse = 0.076\nsamples = 7\nvalue = 0.658"] ;
190 -> 196 ;
197 [label="song_popularity <= 92125.0\nmse = 0.004\nsamples = 2\nvalue = 0.901"] ;
196 -> 197 ;
198 [label="mse = 0.0\nsamples = 1\nvalue = 0.964"] ;
197 -> 198 ;
199 [label="mse = -0.0\nsamples = 1\nvalue = 0.838"] ;
197 -> 199 ;
200 [label="song_popularity <= 92572.0\nmse = 0.072\nsamples = 5\nvalue = 0.561"] ;
196 -> 200 ;
201 [label="song_popularity <= 92537.5\nmse = 0.077\nsamples = 3\nvalue = 0.433"] ;
200 -> 201 ;
202 [label="song_popularity <= 92420.5\nmse = 0.0\nsamples = 2\nvalue = 0.629"] ;
201 -> 202 ;
203 [label="mse = 0.0\nsamples = 1\nvalue = 0.64"] ;
202 -> 203 ;
204 [label="mse = 0.0\nsamples = 1\nvalue = 0.618"] ;
202 -> 204 ;
205 [label="mse = -0.0\nsamples = 1\nvalue = 0.041"] ;
201 -> 205 ;
206 [label="song_popularity <= 92594.5\nmse = 0.002\nsamples = 2\nvalue = 0.754"] ;
200 -> 206 ;
207 [label="mse = 0.0\nsamples = 1\nvalue = 0.711"] ;
206 -> 207 ;
208 [label="mse = 0.0\nsamples = 1\nvalue = 0.797"] ;
206 -> 208 ;
209 [label="song_popularity <= 93663.5\nmse = 0.022\nsamples = 5\nvalue = 0.194"] ;
75 -> 209 ;
210 [label="song_popularity <= 93396.5\nmse = 0.016\nsamples = 4\nvalue = 0.241"] ;
209 -> 210 ;
211 [label="song_popularity <= 93174.5\nmse = 0.004\nsamples = 3\nvalue = 0.176"] ;
210 -> 211 ;
212 [label="song_popularity <= 93021.5\nmse = 0.002\nsamples = 2\nvalue = 0.137"] ;
211 -> 212 ;
213 [label="mse = 0.0\nsamples = 1\nvalue = 0.182"] ;
212 -> 213 ;
214 [label="mse = 0.0\nsamples = 1\nvalue = 0.092"] ;
212 -> 214 ;
215 [label="mse = 0.0\nsamples = 1\nvalue = 0.255"] ;
211 -> 215 ;
216 [label="mse = 0.0\nsamples = 1\nvalue = 0.436"] ;
210 -> 216 ;
217 [label="mse = -0.0\nsamples = 1\nvalue = 0.002"] ;
209 -> 217 ;
218 [label="song_popularity <= 94333.0\nmse = 0.002\nsamples = 3\nvalue = 0.93"] ;
74 -> 218 ;
219 [label="song_popularity <= 94056.5\nmse = 0.001\nsamples = 2\nvalue = 0.96"] ;
218 -> 219 ;
220 [label="mse = 0.0\nsamples = 1\nvalue = 0.925"] ;
219 -> 220 ;
221 [label="mse = -0.0\nsamples = 1\nvalue = 0.994"] ;
219 -> 221 ;
222 [label="mse = 0.0\nsamples = 1\nvalue = 0.872"] ;
218 -> 222 ;
223 [label="song_popularity <= 94677.0\nmse = 0.015\nsamples = 2\nvalue = 0.124"] ;
73 -> 223 ;
224 [label="mse = 0.0\nsamples = 1\nvalue = 0.0"] ;
223 -> 224 ;
225 [label="mse = 0.0\nsamples = 1\nvalue = 0.247"] ;
223 -> 225 ;
226 [label="song_popularity <= 95562.0\nmse = 0.02\nsamples = 13\nvalue = 0.813"] ;
72 -> 226 ;
227 [label="song_popularity <= 95420.0\nmse = 0.03\nsamples = 6\nvalue = 0.761"] ;
226 -> 227 ;
228 [label="song_popularity <= 95285.5\nmse = 0.023\nsamples = 5\nvalue = 0.806"] ;
227 -> 228 ;
229 [label="song_popularity <= 95070.5\nmse = 0.02\nsamples = 4\nvalue = 0.763"] ;
228 -> 229 ;
230 [label="song_popularity <= 94919.0\nmse = 0.0\nsamples = 2\nvalue = 0.848"] ;
229 -> 230 ;
231 [label="mse = 0.0\nsamples = 1\nvalue = 0.842"] ;
230 -> 231 ;
232 [label="mse = 0.0\nsamples = 1\nvalue = 0.855"] ;
230 -> 232 ;
233 [label="song_popularity <= 95232.0\nmse = 0.025\nsamples = 2\nvalue = 0.677"] ;
229 -> 233 ;
234 [label="mse = 0.0\nsamples = 1\nvalue = 0.52"] ;
233 -> 234 ;
235 [label="mse = 0.0\nsamples = 1\nvalue = 0.834"] ;
233 -> 235 ;
236 [label="mse = 0.0\nsamples = 1\nvalue = 0.98"] ;
228 -> 236 ;
237 [label="mse = -0.0\nsamples = 1\nvalue = 0.535"] ;
227 -> 237 ;
238 [label="song_popularity <= 96008.5\nmse = 0.007\nsamples = 7\nvalue = 0.857"] ;
226 -> 238 ;
239 [label="song_popularity <= 95985.0\nmse = 0.001\nsamples = 4\nvalue = 0.899"] ;
238 -> 239 ;
240 [label="song_popularity <= 95789.0\nmse = 0.0\nsamples = 2\nvalue = 0.869"] ;
239 -> 240 ;
241 [label="mse = 0.0\nsamples = 1\nvalue = 0.883"] ;
240 -> 241 ;
242 [label="mse = 0.0\nsamples = 1\nvalue = 0.855"] ;
240 -> 242 ;
243 [label="song_popularity <= 95996.0\nmse = 0.001\nsamples = 2\nvalue = 0.93"] ;
239 -> 243 ;
244 [label="mse = 0.0\nsamples = 1\nvalue = 0.959"] ;
243 -> 244 ;
245 [label="mse = 0.0\nsamples = 1\nvalue = 0.9"] ;
243 -> 245 ;
246 [label="song_popularity <= 96019.5\nmse = 0.008\nsamples = 3\nvalue = 0.8"] ;
238 -> 246 ;
247 [label="mse = 0.0\nsamples = 1\nvalue = 0.678"] ;
246 -> 247 ;
248 [label="song_popularity <= 96024.0\nmse = 0.001\nsamples = 2\nvalue = 0.861"] ;
246 -> 248 ;
249 [label="mse = 0.0\nsamples = 1\nvalue = 0.898"] ;
248 -> 249 ;
250 [label="mse = 0.0\nsamples = 1\nvalue = 0.825"] ;
248 -> 250 ;
251 [label="song_popularity <= 97211.5\nmse = 0.116\nsamples = 77\nvalue = 0.525"] ;
71 -> 251 ;
252 [label="song_popularity <= 97104.5\nmse = 0.129\nsamples = 8\nvalue = 0.345"] ;
251 -> 252 ;
253 [label="song_popularity <= 96959.0\nmse = 0.12\nsamples = 6\nvalue = 0.46"] ;
252 -> 253 ;
254 [label="song_popularity <= 96274.5\nmse = 0.084\nsamples = 5\nvalue = 0.36"] ;
253 -> 254 ;
255 [label="song_popularity <= 96140.0\nmse = 0.1\nsamples = 2\nvalue = 0.538"] ;
254 -> 255 ;
256 [label="mse = 0.0\nsamples = 1\nvalue = 0.221"] ;
255 -> 256 ;
257 [label="mse = -0.0\nsamples = 1\nvalue = 0.854"] ;
255 -> 257 ;
258 [label="song_popularity <= 96732.0\nmse = 0.038\nsamples = 3\nvalue = 0.241"] ;
254 -> 258 ;
259 [label="song_popularity <= 96481.0\nmse = 0.015\nsamples = 2\nvalue = 0.123"] ;
258 -> 259 ;
260 [label="mse = 0.0\nsamples = 1\nvalue = 0.245"] ;
259 -> 260 ;
261 [label="mse = -0.0\nsamples = 1\nvalue = 0.0"] ;
259 -> 261 ;
262 [label="mse = 0.0\nsamples = 1\nvalue = 0.479"] ;
258 -> 262 ;
263 [label="mse = -0.0\nsamples = 1\nvalue = 0.958"] ;
253 -> 263 ;
264 [label="song_popularity <= 97166.5\nmse = 0.0\nsamples = 2\nvalue = 0.0"] ;
252 -> 264 ;
265 [label="mse = 0.0\nsamples = 1\nvalue = 0.0"] ;
264 -> 265 ;
266 [label="mse = 0.0\nsamples = 1\nvalue = 0.0"] ;
264 -> 266 ;
267 [label="song_popularity <= 106356.0\nmse = 0.11\nsamples = 69\nvalue = 0.546"] ;
251 -> 267 ;
268 [label="song_popularity <= 106016.0\nmse = 0.113\nsamples = 53\nvalue = 0.517"] ;
267 -> 268 ;
269 [label="song_popularity <= 105863.5\nmse = 0.11\nsamples = 52\nvalue = 0.527"] ;
268 -> 269 ;
270 [label="song_popularity <= 105335.0\nmse = 0.108\nsamples = 51\nvalue = 0.518"] ;
269 -> 270 ;
271 [label="song_popularity <= 105057.0\nmse = 0.11\nsamples = 48\nvalue = 0.531"] ;
270 -> 271 ;
272 [label="song_popularity <= 97227.5\nmse = 0.107\nsamples = 46\nvalue = 0.514"] ;
271 -> 272 ;
273 [label="mse = 0.0\nsamples = 1\nvalue = 0.854"] ;
272 -> 273 ;
274 [label="song_popularity <= 104302.0\nmse = 0.107\nsamples = 45\nvalue = 0.507"] ;
272 -> 274 ;
275 [label="song_popularity <= 103936.5\nmse = 0.108\nsamples = 38\nvalue = 0.524"] ;
274 -> 275 ;
276 [label="song_popularity <= 103603.0\nmse = 0.108\nsamples = 36\nvalue = 0.506"] ;
275 -> 276 ;
277 [label="song_popularity <= 102640.5\nmse = 0.103\nsamples = 35\nvalue = 0.521"] ;
276 -> 277 ;
278 [label="song_popularity <= 102468.0\nmse = 0.104\nsamples = 31\nvalue = 0.494"] ;
277 -> 278 ;
279 [label="song_popularity <= 102334.5\nmse = 0.102\nsamples = 28\nvalue = 0.527"] ;
278 -> 279 ;
280 [label="song_popularity <= 102256.0\nmse = 0.101\nsamples = 26\nvalue = 0.503"] ;
279 -> 280 ;
281 [label="song_popularity <= 102206.5\nmse = 0.099\nsamples = 25\nvalue = 0.518"] ;
280 -> 281 ;
282 [label="song_popularity <= 102123.5\nmse = 0.099\nsamples = 24\nvalue = 0.505"] ;
281 -> 282 ;
283 [label="song_popularity <= 101161.5\nmse = 0.092\nsamples = 23\nvalue = 0.527"] ;
282 -> 283 ;
284 [label="song_popularity <= 100600.0\nmse = 0.088\nsamples = 21\nvalue = 0.493"] ;
283 -> 284 ;
285 [label="song_popularity <= 100353.5\nmse = 0.088\nsamples = 19\nvalue = 0.523"] ;
284 -> 285 ;
286 [label="song_popularity <= 99900.5\nmse = 0.091\nsamples = 17\nvalue = 0.497"] ;
285 -> 286 ;
287 [label="song_popularity <= 98967.0\nmse = 0.096\nsamples = 15\nvalue = 0.527"] ;
286 -> 287 ;
288 [label="song_popularity <= 98408.0\nmse = 0.101\nsamples = 11\nvalue = 0.469"] ;
287 -> 288 ;
289 [label="song_popularity <= 98342.5\nmse = 0.085\nsamples = 9\nvalue = 0.549"] ;
288 -> 289 ;
290 [label="song_popularity <= 98266.5\nmse = 0.084\nsamples = 8\nvalue = 0.514"] ;
289 -> 290 ;
291 [label="song_popularity <= 97961.0\nmse = 0.066\nsamples = 7\nvalue = 0.575"] ;
290 -> 291 ;
292 [label="song_popularity <= 97682.5\nmse = 0.066\nsamples = 5\nvalue = 0.488"] ;
291 -> 292 ;
293 [label="song_popularity <= 97252.5\nmse = 0.025\nsamples = 4\nvalue = 0.596"] ;
292 -> 293 ;
294 [label="mse = 0.0\nsamples = 1\nvalue = 0.451"] ;
293 -> 294 ;
295 [label="song_popularity <= 97349.0\nmse = 0.024\nsamples = 3\nvalue = 0.644"] ;
293 -> 295 ;
296 [label="mse = 0.0\nsamples = 1\nvalue = 0.793"] ;
295 -> 296 ;
297 [label="song_popularity <= 97528.5\nmse = 0.019\nsamples = 2\nvalue = 0.57"] ;
295 -> 297 ;
298 [label="mse = 0.0\nsamples = 1\nvalue = 0.432"] ;
297 -> 298 ;
299 [label="mse = 0.0\nsamples = 1\nvalue = 0.707"] ;
297 -> 299 ;
300 [label="mse = 0.0\nsamples = 1\nvalue = 0.059"] ;
292 -> 300 ;
301 [label="song_popularity <= 98190.5\nmse = 0.001\nsamples = 2\nvalue = 0.79"] ;
291 -> 301 ;
302 [label="mse = 0.0\nsamples = 1\nvalue = 0.826"] ;
301 -> 302 ;
303 [label="mse = -0.0\nsamples = 1\nvalue = 0.754"] ;
301 -> 303 ;
304 [label="mse = 0.0\nsamples = 1\nvalue = 0.086"] ;
290 -> 304 ;
305 [label="mse = -0.0\nsamples = 1\nvalue = 0.836"] ;
289 -> 305 ;
306 [label="song_popularity <= 98599.0\nmse = 0.011\nsamples = 2\nvalue = 0.105"] ;
288 -> 306 ;
307 [label="mse = 0.0\nsamples = 1\nvalue = 0.0"] ;
306 -> 307 ;
308 [label="mse = 0.0\nsamples = 1\nvalue = 0.21"] ;
306 -> 308 ;
309 [label="song_popularity <= 99255.0\nmse = 0.047\nsamples = 4\nvalue = 0.688"] ;
287 -> 309 ;
310 [label="mse = 0.0\nsamples = 1\nvalue = 0.927"] ;
309 -> 310 ;
311 [label="song_popularity <= 99767.0\nmse = 0.037\nsamples = 3\nvalue = 0.609"] ;
309 -> 311 ;
312 [label="song_popularity <= 99534.5\nmse = 0.039\nsamples = 2\nvalue = 0.684"] ;
311 -> 312 ;
313 [label="mse = 0.0\nsamples = 1\nvalue = 0.486"] ;
312 -> 313 ;
314 [label="mse = -0.0\nsamples = 1\nvalue = 0.881"] ;
312 -> 314 ;
315 [label="mse = 0.0\nsamples = 1\nvalue = 0.46"] ;
311 -> 315 ;
316 [label="song_popularity <= 100134.0\nmse = 0.001\nsamples = 2\nvalue = 0.273"] ;
286 -> 316 ;
317 [label="mse = 0.0\nsamples = 1\nvalue = 0.298"] ;
316 -> 317 ;
318 [label="mse = -0.0\nsamples = 1\nvalue = 0.248"] ;
316 -> 318 ;
319 [label="song_popularity <= 100518.0\nmse = 0.002\nsamples = 2\nvalue = 0.743"] ;
285 -> 319 ;
320 [label="mse = 0.0\nsamples = 1\nvalue = 0.704"] ;
319 -> 320 ;
321 [label="mse = 0.0\nsamples = 1\nvalue = 0.782"] ;
319 -> 321 ;
322 [label="song_popularity <= 100841.0\nmse = 0.001\nsamples = 2\nvalue = 0.21"] ;
284 -> 322 ;
323 [label="mse = 0.0\nsamples = 1\nvalue = 0.178"] ;
322 -> 323 ;
324 [label="mse = -0.0\nsamples = 1\nvalue = 0.242"] ;
322 -> 324 ;
325 [label="song_popularity <= 101673.5\nmse = 0.004\nsamples = 2\nvalue = 0.878"] ;
283 -> 325 ;
326 [label="mse = 0.0\nsamples = 1\nvalue = 0.939"] ;
325 -> 326 ;
327 [label="mse = 0.0\nsamples = 1\nvalue = 0.818"] ;
325 -> 327 ;
328 [label="mse = -0.0\nsamples = 1\nvalue = 0.009"] ;
282 -> 328 ;
329 [label="mse = -0.0\nsamples = 1\nvalue = 0.819"] ;
281 -> 329 ;
330 [label="mse = -0.0\nsamples = 1\nvalue = 0.121"] ;
280 -> 330 ;
331 [label="mse = 0.018\nsamples = 2\nvalue = 0.838"] ;
279 -> 331 ;
332 [label="song_popularity <= 102590.0\nmse = 0.017\nsamples = 3\nvalue = 0.19"] ;
278 -> 332 ;
333 [label="song_popularity <= 102548.0\nmse = 0.0\nsamples = 2\nvalue = 0.1"] ;
332 -> 333 ;
334 [label="mse = 0.0\nsamples = 1\nvalue = 0.077"] ;
333 -> 334 ;
335 [label="mse = 0.0\nsamples = 1\nvalue = 0.122"] ;
333 -> 335 ;
336 [label="mse = 0.0\nsamples = 1\nvalue = 0.371"] ;
332 -> 336 ;
337 [label="song_popularity <= 103095.0\nmse = 0.048\nsamples = 4\nvalue = 0.729"] ;
277 -> 337 ;
338 [label="song_popularity <= 102726.0\nmse = 0.044\nsamples = 3\nvalue = 0.658"] ;
337 -> 338 ;
339 [label="mse = 0.0\nsamples = 1\nvalue = 0.923"] ;
338 -> 339 ;
340 [label="song_popularity <= 102824.0\nmse = 0.013\nsamples = 2\nvalue = 0.526"] ;
338 -> 340 ;
341 [label="mse = 0.0\nsamples = 1\nvalue = 0.639"] ;
340 -> 341 ;
342 [label="mse = -0.0\nsamples = 1\nvalue = 0.413"] ;
340 -> 342 ;
343 [label="mse = -0.0\nsamples = 1\nvalue = 0.942"] ;
337 -> 343 ;
344 [label="mse = -0.0\nsamples = 1\nvalue = 0.001"] ;
276 -> 344 ;
345 [label="song_popularity <= 104062.0\nmse = 0.006\nsamples = 2\nvalue = 0.85"] ;
275 -> 345 ;
346 [label="mse = 0.0\nsamples = 1\nvalue = 0.927"] ;
345 -> 346 ;
347 [label="mse = 0.0\nsamples = 1\nvalue = 0.772"] ;
345 -> 347 ;
348 [label="song_popularity <= 104574.0\nmse = 0.09\nsamples = 7\nvalue = 0.409"] ;
274 -> 348 ;
349 [label="song_popularity <= 104493.0\nmse = 0.032\nsamples = 3\nvalue = 0.196"] ;
348 -> 349 ;
350 [label="mse = 0.0\nsamples = 1\nvalue = 0.0"] ;
349 -> 350 ;
351 [label="song_popularity <= 104517.0\nmse = 0.019\nsamples = 2\nvalue = 0.294"] ;
349 -> 351 ;
352 [label="mse = 0.0\nsamples = 1\nvalue = 0.431"] ;
351 -> 352 ;
353 [label="mse = 0.0\nsamples = 1\nvalue = 0.156"] ;
351 -> 353 ;
354 [label="song_popularity <= 104783.5\nmse = 0.074\nsamples = 4\nvalue = 0.569"] ;
348 -> 354 ;
355 [label="mse = 0.0\nsamples = 1\nvalue = 0.853"] ;
354 -> 355 ;
356 [label="song_popularity <= 104973.5\nmse = 0.063\nsamples = 3\nvalue = 0.475"] ;
354 -> 356 ;
357 [label="mse = 0.0\nsamples = 1\nvalue = 0.127"] ;
356 -> 357 ;
358 [label="song_popularity <= 105006.5\nmse = 0.004\nsamples = 2\nvalue = 0.649"] ;
356 -> 358 ;
359 [label="mse = 0.0\nsamples = 1\nvalue = 0.709"] ;
358 -> 359 ;
360 [label="mse = -0.0\nsamples = 1\nvalue = 0.588"] ;
358 -> 360 ;
361 [label="song_popularity <= 105138.5\nmse = 0.006\nsamples = 2\nvalue = 0.916"] ;
271 -> 361 ;
362 [label="mse = 0.0\nsamples = 1\nvalue = 0.838"] ;
361 -> 362 ;
363 [label="mse = 0.0\nsamples = 1\nvalue = 0.994"] ;
361 -> 363 ;
364 [label="song_popularity <= 105644.0\nmse = 0.035\nsamples = 3\nvalue = 0.307"] ;
270 -> 364 ;
365 [label="song_popularity <= 105520.5\nmse = 0.001\nsamples = 2\nvalue = 0.175"] ;
364 -> 365 ;
366 [label="mse = 0.0\nsamples = 1\nvalue = 0.202"] ;
365 -> 366 ;
367 [label="mse = 0.0\nsamples = 1\nvalue = 0.148"] ;
365 -> 367 ;
368 [label="mse = 0.0\nsamples = 1\nvalue = 0.57"] ;
364 -> 368 ;
369 [label="mse = 0.0\nsamples = 1\nvalue = 0.996"] ;
269 -> 369 ;
370 [label="mse = 0.0\nsamples = 1\nvalue = 0.018"] ;
268 -> 370 ;
371 [label="song_popularity <= 107295.5\nmse = 0.089\nsamples = 16\nvalue = 0.639"] ;
267 -> 371 ;
372 [label="song_popularity <= 106744.0\nmse = 0.02\nsamples = 8\nvalue = 0.782"] ;
371 -> 372 ;
373 [label="song_popularity <= 106697.0\nmse = 0.044\nsamples = 2\nvalue = 0.692"] ;
372 -> 373 ;
374 [label="mse = 0.0\nsamples = 1\nvalue = 0.902"] ;
373 -> 374 ;
375 [label="mse = 0.0\nsamples = 1\nvalue = 0.482"] ;
373 -> 375 ;
376 [label="song_popularity <= 107028.0\nmse = 0.008\nsamples = 6\nvalue = 0.812"] ;
372 -> 376 ;
377 [label="song_popularity <= 106870.0\nmse = 0.0\nsamples = 2\nvalue = 0.848"] ;
376 -> 377 ;
378 [label="mse = 0.0\nsamples = 1\nvalue = 0.83"] ;
377 -> 378 ;
379 [label="mse = 0.0\nsamples = 1\nvalue = 0.866"] ;
377 -> 379 ;
380 [label="song_popularity <= 107118.0\nmse = 0.011\nsamples = 4\nvalue = 0.794"] ;
376 -> 380 ;
381 [label="mse = 0.0\nsamples = 1\nvalue = 0.684"] ;
380 -> 381 ;
382 [label="song_popularity <= 107173.0\nmse = 0.009\nsamples = 3\nvalue = 0.83"] ;
380 -> 382 ;
383 [label="mse = 0.014\nsamples = 2\nvalue = 0.83"] ;
382 -> 383 ;
384 [label="mse = -0.0\nsamples = 1\nvalue = 0.83"] ;
382 -> 384 ;
385 [label="song_popularity <= 107927.5\nmse = 0.117\nsamples = 8\nvalue = 0.497"] ;
371 -> 385 ;
386 [label="song_popularity <= 107885.5\nmse = 0.115\nsamples = 4\nvalue = 0.347"] ;
385 -> 386 ;
387 [label="song_popularity <= 107691.0\nmse = 0.115\nsamples = 3\nvalue = 0.445"] ;
386 -> 387 ;
388 [label="song_popularity <= 107461.0\nmse = 0.045\nsamples = 2\nvalue = 0.239"] ;
387 -> 388 ;
389 [label="mse = 0.0\nsamples = 1\nvalue = 0.451"] ;
388 -> 389 ;
390 [label="mse = 0.0\nsamples = 1\nvalue = 0.027"] ;
388 -> 390 ;
391 [label="mse = 0.0\nsamples = 1\nvalue = 0.858"] ;
387 -> 391 ;
392 [label="mse = -0.0\nsamples = 1\nvalue = 0.053"] ;
386 -> 392 ;
393 [label="song_popularity <= 108021.5\nmse = 0.074\nsamples = 4\nvalue = 0.647"] ;
385 -> 393 ;
394 [label="song_popularity <= 107974.5\nmse = 0.003\nsamples = 2\nvalue = 0.904"] ;
393 -> 394 ;
395 [label="mse = 0.0\nsamples = 1\nvalue = 0.846"] ;
394 -> 395 ;
396 [label="mse = 0.0\nsamples = 1\nvalue = 0.962"] ;
394 -> 396 ;
397 [label="song_popularity <= 108060.5\nmse = 0.012\nsamples = 2\nvalue = 0.39"] ;
393 -> 397 ;
398 [label="mse = 0.0\nsamples = 1\nvalue = 0.28"] ;
397 -> 398 ;
399 [label="mse = -0.0\nsamples = 1\nvalue = 0.499"] ;
397 -> 399 ;
400 [label="song_popularity <= 108805.5\nmse = 0.005\nsamples = 4\nvalue = 0.891"] ;
70 -> 400 ;
401 [label="song_popularity <= 108435.0\nmse = 0.001\nsamples = 2\nvalue = 0.956"] ;
400 -> 401 ;
402 [label="mse = 0.0\nsamples = 1\nvalue = 0.924"] ;
401 -> 402 ;
403 [label="mse = 0.0\nsamples = 1\nvalue = 0.989"] ;
401 -> 403 ;
404 [label="song_popularity <= 108874.5\nmse = 0.001\nsamples = 2\nvalue = 0.825"] ;
400 -> 404 ;
405 [label="mse = 0.0\nsamples = 1\nvalue = 0.799"] ;
404 -> 405 ;
406 [label="mse = 0.0\nsamples = 1\nvalue = 0.851"] ;
404 -> 406 ;
407 [label="song_popularity <= 138670.5\nmse = 0.114\nsamples = 1313\nvalue = 0.438"] ;
1 -> 407 ;
408 [label="song_popularity <= 109591.0\nmse = 0.116\nsamples = 515\nvalue = 0.474"] ;
407 -> 408 ;
409 [label="song_popularity <= 109241.5\nmse = 0.029\nsamples = 12\nvalue = 0.205"] ;
408 -> 409 ;
410 [label="song_popularity <= 109186.5\nmse = 0.012\nsamples = 7\nvalue = 0.331"] ;
409 -> 410 ;
411 [label="song_popularity <= 109109.5\nmse = 0.005\nsamples = 6\nvalue = 0.296"] ;
410 -> 411 ;
412 [label="song_popularity <= 109098.0\nmse = 0.005\nsamples = 4\nvalue = 0.325"] ;
411 -> 412 ;
413 [label="song_popularity <= 108944.0\nmse = 0.0\nsamples = 3\nvalue = 0.287"] ;
412 -> 413 ;
414 [label="mse = 0.0\nsamples = 1\nvalue = 0.258"] ;
413 -> 414 ;
415 [label="song_popularity <= 109018.0\nmse = 0.0\nsamples = 2\nvalue = 0.302"] ;
413 -> 415 ;
416 [label="mse = 0.0\nsamples = 1\nvalue = 0.3"] ;
415 -> 416 ;
417 [label="mse = 0.0\nsamples = 1\nvalue = 0.303"] ;
415 -> 417 ;
418 [label="mse = -0.0\nsamples = 1\nvalue = 0.439"] ;
412 -> 418 ;
419 [label="song_popularity <= 109136.5\nmse = 0.0\nsamples = 2\nvalue = 0.236"] ;
411 -> 419 ;
420 [label="mse = 0.0\nsamples = 1\nvalue = 0.237"] ;
419 -> 420 ;
421 [label="mse = 0.0\nsamples = 1\nvalue = 0.236"] ;
419 -> 421 ;
422 [label="mse = -0.0\nsamples = 1\nvalue = 0.547"] ;
410 -> 422 ;
423 [label="song_popularity <= 109286.0\nmse = 0.0\nsamples = 5\nvalue = 0.028"] ;
409 -> 423 ;
424 [label="mse = 0.0\nsamples = 1\nvalue = 0.004"] ;
423 -> 424 ;
425 [label="song_popularity <= 109429.5\nmse = 0.0\nsamples = 4\nvalue = 0.035"] ;
423 -> 425 ;
426 [label="mse = 0.0\nsamples = 3\nvalue = 0.029"] ;
425 -> 426 ;
427 [label="mse = -0.0\nsamples = 1\nvalue = 0.051"] ;
425 -> 427 ;
428 [label="song_popularity <= 138412.0\nmse = 0.116\nsamples = 503\nvalue = 0.48"] ;
408 -> 428 ;
429 [label="song_popularity <= 110099.5\nmse = 0.115\nsamples = 496\nvalue = 0.476"] ;
428 -> 429 ;
430 [label="song_popularity <= 109669.5\nmse = 0.028\nsamples = 8\nvalue = 0.711"] ;
429 -> 430 ;
431 [label="song_popularity <= 109645.5\nmse = 0.001\nsamples = 2\nvalue = 0.462"] ;
430 -> 431 ;
432 [label="mse = 0.0\nsamples = 1\nvalue = 0.439"] ;
431 -> 432 ;
433 [label="mse = -0.0\nsamples = 1\nvalue = 0.486"] ;
431 -> 433 ;
434 [label="song_popularity <= 109876.0\nmse = 0.01\nsamples = 6\nvalue = 0.794"] ;
430 -> 434 ;
435 [label="song_popularity <= 109707.0\nmse = 0.006\nsamples = 3\nvalue = 0.876"] ;
434 -> 435 ;
436 [label="mse = 0.0\nsamples = 1\nvalue = 0.776"] ;
435 -> 436 ;
437 [label="song_popularity <= 109805.5\nmse = 0.001\nsamples = 2\nvalue = 0.926"] ;
435 -> 437 ;
438 [label="mse = 0.0\nsamples = 1\nvalue = 0.959"] ;
437 -> 438 ;
439 [label="mse = 0.0\nsamples = 1\nvalue = 0.892"] ;
437 -> 439 ;
440 [label="song_popularity <= 110082.0\nmse = 0.001\nsamples = 3\nvalue = 0.712"] ;
434 -> 440 ;
441 [label="song_popularity <= 109976.5\nmse = 0.0\nsamples = 2\nvalue = 0.73"] ;
440 -> 441 ;
442 [label="mse = 0.0\nsamples = 1\nvalue = 0.712"] ;
441 -> 442 ;
443 [label="mse = 0.0\nsamples = 1\nvalue = 0.748"] ;
441 -> 443 ;
444 [label="mse = 0.0\nsamples = 1\nvalue = 0.676"] ;
440 -> 444 ;
445 [label="song_popularity <= 110386.5\nmse = 0.116\nsamples = 488\nvalue = 0.472"] ;
429 -> 445 ;
446 [label="song_popularity <= 110136.0\nmse = 0.019\nsamples = 4\nvalue = 0.12"] ;
445 -> 446 ;
447 [label="mse = 0.0\nsamples = 1\nvalue = 0.35"] ;
446 -> 447 ;
448 [label="song_popularity <= 110310.5\nmse = 0.002\nsamples = 3\nvalue = 0.043"] ;
446 -> 448 ;
449 [label="song_popularity <= 110229.5\nmse = 0.001\nsamples = 2\nvalue = 0.061"] ;
448 -> 449 ;
450 [label="mse = 0.0\nsamples = 1\nvalue = 0.023"] ;
449 -> 450 ;
451 [label="mse = 0.0\nsamples = 1\nvalue = 0.1"] ;
449 -> 451 ;
452 [label="mse = 0.0\nsamples = 1\nvalue = 0.007"] ;
448 -> 452 ;
453 [label="song_popularity <= 138222.5\nmse = 0.115\nsamples = 484\nvalue = 0.475"] ;
445 -> 453 ;
454 [label="song_popularity <= 130381.5\nmse = 0.115\nsamples = 479\nvalue = 0.478"] ;
453 -> 454 ;
455 [label="song_popularity <= 129759.5\nmse = 0.117\nsamples = 295\nvalue = 0.496"] ;
454 -> 455 ;
456 [label="song_popularity <= 129602.0\nmse = 0.117\nsamples = 283\nvalue = 0.49"] ;
455 -> 456 ;
457 [label="song_popularity <= 129411.5\nmse = 0.117\nsamples = 281\nvalue = 0.493"] ;
456 -> 457 ;
458 [label="song_popularity <= 128320.0\nmse = 0.117\nsamples = 277\nvalue = 0.49"] ;
457 -> 458 ;
459 [label="song_popularity <= 128186.0\nmse = 0.12\nsamples = 255\nvalue = 0.497"] ;
458 -> 459 ;
460 [label="song_popularity <= 117621.5\nmse = 0.12\nsamples = 247\nvalue = 0.488"] ;
459 -> 460 ;
461 [label="song_popularity <= 117076.5\nmse = 0.12\nsamples = 75\nvalue = 0.52"] ;
460 -> 461 ;
462 [label="song_popularity <= 115789.0\nmse = 0.117\nsamples = 68\nvalue = 0.493"] ;
461 -> 462 ;
463 [label="song_popularity <= 114349.0\nmse = 0.125\nsamples = 54\nvalue = 0.523"] ;
462 -> 463 ;
464 [label="song_popularity <= 113760.0\nmse = 0.123\nsamples = 38\nvalue = 0.467"] ;
463 -> 464 ;
465 [label="song_popularity <= 113125.5\nmse = 0.118\nsamples = 36\nvalue = 0.492"] ;
464 -> 465 ;
466 [label="song_popularity <= 112793.0\nmse = 0.116\nsamples = 31\nvalue = 0.451"] ;
465 -> 466 ;
467 [label="song_popularity <= 112509.5\nmse = 0.114\nsamples = 27\nvalue = 0.499"] ;
466 -> 467 ;
468 [label="song_popularity <= 112430.0\nmse = 0.121\nsamples = 23\nvalue = 0.468"] ;
467 -> 468 ;
469 [label="song_popularity <= 112322.0\nmse = 0.116\nsamples = 22\nvalue = 0.489"] ;
468 -> 469 ;
470 [label="song_popularity <= 111089.5\nmse = 0.12\nsamples = 20\nvalue = 0.462"] ;
469 -> 470 ;
471 [label="song_popularity <= 110768.5\nmse = 0.098\nsamples = 11\nvalue = 0.568"] ;
470 -> 471 ;
472 [label="song_popularity <= 110756.0\nmse = 0.099\nsamples = 8\nvalue = 0.487"] ;
471 -> 472 ;
473 [label="song_popularity <= 110699.0\nmse = 0.079\nsamples = 7\nvalue = 0.553"] ;
472 -> 473 ;
474 [label="song_popularity <= 110653.5\nmse = 0.072\nsamples = 6\nvalue = 0.498"] ;
473 -> 474 ;
475 [label="song_popularity <= 110469.0\nmse = 0.028\nsamples = 5\nvalue = 0.597"] ;
474 -> 475 ;
476 [label="mse = 0.0\nsamples = 1\nvalue = 0.389"] ;
475 -> 476 ;
477 [label="song_popularity <= 110566.5\nmse = 0.022\nsamples = 4\nvalue = 0.649"] ;
475 -> 477 ;
478 [label="song_popularity <= 110526.5\nmse = 0.002\nsamples = 2\nvalue = 0.792"] ;
477 -> 478 ;
479 [label="mse = 0.0\nsamples = 1\nvalue = 0.831"] ;
478 -> 479 ;
480 [label="mse = -0.0\nsamples = 1\nvalue = 0.753"] ;
478 -> 480 ;
481 [label="song_popularity <= 110613.0\nmse = 0.001\nsamples = 2\nvalue = 0.506"] ;
477 -> 481 ;
482 [label="mse = 0.0\nsamples = 1\nvalue = 0.534"] ;
481 -> 482 ;
483 [label="mse = -0.0\nsamples = 1\nvalue = 0.478"] ;
481 -> 483 ;
484 [label="mse = -0.0\nsamples = 1\nvalue = 0.006"] ;
474 -> 484 ;
485 [label="mse = -0.0\nsamples = 1\nvalue = 0.878"] ;
473 -> 485 ;
486 [label="mse = -0.0\nsamples = 1\nvalue = 0.03"] ;
472 -> 486 ;
487 [label="song_popularity <= 110940.0\nmse = 0.032\nsamples = 3\nvalue = 0.784"] ;
471 -> 487 ;
488 [label="song_popularity <= 110824.5\nmse = 0.01\nsamples = 2\nvalue = 0.897"] ;
487 -> 488 ;
489 [label="mse = 0.0\nsamples = 1\nvalue = 0.798"] ;
488 -> 489 ;
490 [label="mse = -0.0\nsamples = 1\nvalue = 0.996"] ;
488 -> 490 ;
491 [label="mse = 0.0\nsamples = 1\nvalue = 0.558"] ;
487 -> 491 ;
492 [label="song_popularity <= 111213.0\nmse = 0.115\nsamples = 9\nvalue = 0.333"] ;
470 -> 492 ;
493 [label="song_popularity <= 111182.5\nmse = 0.003\nsamples = 2\nvalue = 0.086"] ;
492 -> 493 ;
494 [label="mse = 0.0\nsamples = 1\nvalue = 0.029"] ;
493 -> 494 ;
495 [label="mse = 0.0\nsamples = 1\nvalue = 0.143"] ;
493 -> 495 ;
496 [label="song_popularity <= 111390.0\nmse = 0.125\nsamples = 7\nvalue = 0.404"] ;
492 -> 496 ;
497 [label="song_popularity <= 111310.0\nmse = 0.044\nsamples = 2\nvalue = 0.76"] ;
496 -> 497 ;
498 [label="mse = 0.0\nsamples = 1\nvalue = 0.55"] ;
497 -> 498 ;
499 [label="mse = 0.0\nsamples = 1\nvalue = 0.97"] ;
497 -> 499 ;
500 [label="song_popularity <= 112083.5\nmse = 0.086\nsamples = 5\nvalue = 0.261"] ;
496 -> 500 ;
501 [label="song_popularity <= 111683.5\nmse = 0.001\nsamples = 2\nvalue = 0.094"] ;
500 -> 501 ;
502 [label="mse = 0.0\nsamples = 1\nvalue = 0.122"] ;
501 -> 502 ;
503 [label="mse = 0.0\nsamples = 1\nvalue = 0.066"] ;
501 -> 503 ;
504 [label="song_popularity <= 112234.5\nmse = 0.112\nsamples = 3\nvalue = 0.373"] ;
500 -> 504 ;
505 [label="mse = 0.0\nsamples = 1\nvalue = 0.811"] ;
504 -> 505 ;
506 [label="song_popularity <= 112280.0\nmse = 0.023\nsamples = 2\nvalue = 0.154"] ;
504 -> 506 ;
507 [label="mse = 0.0\nsamples = 1\nvalue = 0.307"] ;
506 -> 507 ;
508 [label="mse = -0.0\nsamples = 1\nvalue = 0.001"] ;
506 -> 508 ;
509 [label="song_popularity <= 112356.5\nmse = 0.0\nsamples = 2\nvalue = 0.756"] ;
469 -> 509 ;
510 [label="mse = 0.0\nsamples = 1\nvalue = 0.744"] ;
509 -> 510 ;
511 [label="mse = 0.0\nsamples = 1\nvalue = 0.767"] ;
509 -> 511 ;
512 [label="mse = 0.0\nsamples = 1\nvalue = 0.0"] ;
468 -> 512 ;
513 [label="song_popularity <= 112579.5\nmse = 0.039\nsamples = 4\nvalue = 0.676"] ;
467 -> 513 ;
514 [label="mse = 0.0\nsamples = 1\nvalue = 0.81"] ;
513 -> 514 ;
515 [label="song_popularity <= 112695.0\nmse = 0.044\nsamples = 3\nvalue = 0.632"] ;
513 -> 515 ;
516 [label="mse = 0.0\nsamples = 1\nvalue = 0.4"] ;
515 -> 516 ;
517 [label="song_popularity <= 112768.0\nmse = 0.025\nsamples = 2\nvalue = 0.748"] ;
515 -> 517 ;
518 [label="mse = 0.0\nsamples = 1\nvalue = 0.907"] ;
517 -> 518 ;
519 [label="mse = -0.0\nsamples = 1\nvalue = 0.589"] ;
517 -> 519 ;
520 [label="song_popularity <= 112839.5\nmse = 0.008\nsamples = 4\nvalue = 0.13"] ;
466 -> 520 ;
521 [label="mse = 0.0\nsamples = 1\nvalue = 0.252"] ;
520 -> 521 ;
522 [label="song_popularity <= 112928.0\nmse = 0.005\nsamples = 3\nvalue = 0.09"] ;
520 -> 522 ;
523 [label="mse = 0.0\nsamples = 1\nvalue = 0.001"] ;
522 -> 523 ;
524 [label="song_popularity <= 112994.0\nmse = 0.001\nsamples = 2\nvalue = 0.134"] ;
522 -> 524 ;
525 [label="mse = 0.0\nsamples = 1\nvalue = 0.098"] ;
524 -> 525 ;
526 [label="mse = 0.0\nsamples = 1\nvalue = 0.169"] ;
524 -> 526 ;
527 [label="song_popularity <= 113646.5\nmse = 0.061\nsamples = 5\nvalue = 0.745"] ;
465 -> 527 ;
528 [label="song_popularity <= 113520.0\nmse = 0.016\nsamples = 4\nvalue = 0.855"] ;
527 -> 528 ;
529 [label="song_popularity <= 113292.5\nmse = 0.007\nsamples = 3\nvalue = 0.913"] ;
528 -> 529 ;
530 [label="mse = 0.0\nsamples = 1\nvalue = 0.794"] ;
529 -> 530 ;
531 [label="song_popularity <= 113372.5\nmse = 0.0\nsamples = 2\nvalue = 0.972"] ;
529 -> 531 ;
532 [label="mse = 0.0\nsamples = 1\nvalue = 0.952"] ;
531 -> 532 ;
533 [label="mse = 0.0\nsamples = 1\nvalue = 0.992"] ;
531 -> 533 ;
534 [label="mse = -0.0\nsamples = 1\nvalue = 0.681"] ;
528 -> 534 ;
535 [label="mse = -0.0\nsamples = 1\nvalue = 0.305"] ;
527 -> 535 ;
536 [label="song_popularity <= 114053.5\nmse = 0.001\nsamples = 2\nvalue = 0.026"] ;
464 -> 536 ;
537 [label="mse = 0.0\nsamples = 1\nvalue = 0.053"] ;
536 -> 537 ;
538 [label="mse = -0.0\nsamples = 1\nvalue = 0.0"] ;
536 -> 538 ;
539 [label="song_popularity <= 114616.0\nmse = 0.106\nsamples = 16\nvalue = 0.655"] ;
463 -> 539 ;
540 [label="song_popularity <= 114459.5\nmse = 0.01\nsamples = 5\nvalue = 0.867"] ;
539 -> 540 ;
541 [label="mse = 0.0\nsamples = 1\nvalue = 0.687"] ;
540 -> 541 ;
542 [label="song_popularity <= 114480.5\nmse = 0.003\nsamples = 4\nvalue = 0.912"] ;
540 -> 542 ;
543 [label="mse = 0.0\nsamples = 1\nvalue = 0.993"] ;
542 -> 543 ;
544 [label="song_popularity <= 114541.0\nmse = 0.0\nsamples = 3\nvalue = 0.884"] ;
542 -> 544 ;
545 [label="mse = 0.0\nsamples = 1\nvalue = 0.853"] ;
544 -> 545 ;
546 [label="song_popularity <= 114594.0\nmse = 0.0\nsamples = 2\nvalue = 0.9"] ;
544 -> 546 ;
547 [label="mse = 0.0\nsamples = 1\nvalue = 0.898"] ;
546 -> 547 ;
548 [label="mse = -0.0\nsamples = 1\nvalue = 0.902"] ;
546 -> 548 ;
549 [label="song_popularity <= 114886.5\nmse = 0.121\nsamples = 11\nvalue = 0.559"] ;
539 -> 549 ;
550 [label="song_popularity <= 114725.5\nmse = 0.102\nsamples = 4\nvalue = 0.26"] ;
549 -> 550 ;
551 [label="song_popularity <= 114663.5\nmse = 0.0\nsamples = 2\nvalue = 0.108"] ;
550 -> 551 ;
552 [label="mse = 0.0\nsamples = 1\nvalue = 0.086"] ;
551 -> 552 ;
553 [label="mse = 0.0\nsamples = 1\nvalue = 0.13"] ;
551 -> 553 ;
554 [label="song_popularity <= 114761.5\nmse = 0.157\nsamples = 2\nvalue = 0.413"] ;
550 -> 554 ;
555 [label="mse = 0.0\nsamples = 1\nvalue = 0.809"] ;
554 -> 555 ;
556 [label="mse = -0.0\nsamples = 1\nvalue = 0.017"] ;
554 -> 556 ;
557 [label="song_popularity <= 115516.5\nmse = 0.051\nsamples = 7\nvalue = 0.73"] ;
549 -> 557 ;
558 [label="song_popularity <= 115213.5\nmse = 0.02\nsamples = 4\nvalue = 0.862"] ;
557 -> 558 ;
559 [label="song_popularity <= 115100.0\nmse = 0.006\nsamples = 2\nvalue = 0.732"] ;
558 -> 559 ;
560 [label="mse = 0.0\nsamples = 1\nvalue = 0.807"] ;
559 -> 560 ;
561 [label="mse = 0.0\nsamples = 1\nvalue = 0.658"] ;
559 -> 561 ;
562 [label="song_popularity <= 115321.5\nmse = 0.0\nsamples = 2\nvalue = 0.992"] ;
558 -> 562 ;
563 [label="mse = 0.0\nsamples = 1\nvalue = 0.996"] ;
562 -> 563 ;
564 [label="mse = 0.0\nsamples = 1\nvalue = 0.989"] ;
562 -> 564 ;
565 [label="song_popularity <= 115635.0\nmse = 0.038\nsamples = 3\nvalue = 0.554"] ;
557 -> 565 ;
566 [label="mse = 0.0\nsamples = 1\nvalue = 0.306"] ;
565 -> 566 ;
567 [label="song_popularity <= 115679.5\nmse = 0.011\nsamples = 2\nvalue = 0.678"] ;
565 -> 567 ;
568 [label="mse = 0.0\nsamples = 1\nvalue = 0.573"] ;
567 -> 568 ;
569 [label="mse = 0.0\nsamples = 1\nvalue = 0.783"] ;
567 -> 569 ;
570 [label="song_popularity <= 116203.5\nmse = 0.069\nsamples = 14\nvalue = 0.377"] ;
462 -> 570 ;
571 [label="song_popularity <= 115936.0\nmse = 0.008\nsamples = 4\nvalue = 0.115"] ;
570 -> 571 ;
572 [label="mse = 0.0\nsamples = 1\nvalue = 0.022"] ;
571 -> 572 ;
573 [label="song_popularity <= 116059.5\nmse = 0.007\nsamples = 3\nvalue = 0.146"] ;
571 -> 573 ;
574 [label="mse = 0.0\nsamples = 1\nvalue = 0.263"] ;
573 -> 574 ;
575 [label="song_popularity <= 116123.0\nmse = 0.0\nsamples = 2\nvalue = 0.088"] ;
573 -> 575 ;
576 [label="mse = 0.0\nsamples = 1\nvalue = 0.076"] ;
575 -> 576 ;
577 [label="mse = 0.0\nsamples = 1\nvalue = 0.1"] ;
575 -> 577 ;
578 [label="song_popularity <= 116583.0\nmse = 0.055\nsamples = 10\nvalue = 0.482"] ;
570 -> 578 ;
579 [label="song_popularity <= 116457.0\nmse = 0.079\nsamples = 3\nvalue = 0.619"] ;
578 -> 579 ;
580 [label="song_popularity <= 116354.0\nmse = 0.012\nsamples = 2\nvalue = 0.43"] ;
579 -> 580 ;
581 [label="mse = 0.0\nsamples = 1\nvalue = 0.322"] ;
580 -> 581 ;
582 [label="mse = 0.0\nsamples = 1\nvalue = 0.538"] ;
580 -> 582 ;
583 [label="mse = 0.0\nsamples = 1\nvalue = 0.996"] ;
579 -> 583 ;
584 [label="song_popularity <= 116684.0\nmse = 0.033\nsamples = 7\nvalue = 0.423"] ;
578 -> 584 ;
585 [label="mse = 0.0\nsamples = 1\nvalue = 0.128"] ;
584 -> 585 ;
586 [label="song_popularity <= 116905.5\nmse = 0.022\nsamples = 6\nvalue = 0.472"] ;
584 -> 586 ;
587 [label="song_popularity <= 116699.0\nmse = 0.01\nsamples = 3\nvalue = 0.563"] ;
586 -> 587 ;
588 [label="mse = 0.0\nsamples = 1\nvalue = 0.473"] ;
587 -> 588 ;
589 [label="song_popularity <= 116801.5\nmse = 0.009\nsamples = 2\nvalue = 0.608"] ;
587 -> 589 ;
590 [label="mse = 0.0\nsamples = 1\nvalue = 0.702"] ;
589 -> 590 ;
591 [label="mse = -0.0\nsamples = 1\nvalue = 0.513"] ;
589 -> 591 ;
592 [label="song_popularity <= 117063.0\nmse = 0.017\nsamples = 3\nvalue = 0.382"] ;
586 -> 592 ;
593 [label="song_popularity <= 116985.5\nmse = 0.002\nsamples = 2\nvalue = 0.292"] ;
592 -> 593 ;
594 [label="mse = 0.0\nsamples = 1\nvalue = 0.251"] ;
593 -> 594 ;
595 [label="mse = -0.0\nsamples = 1\nvalue = 0.333"] ;
593 -> 595 ;
596 [label="mse = 0.0\nsamples = 1\nvalue = 0.561"] ;
592 -> 596 ;
597 [label="song_popularity <= 117251.0\nmse = 0.077\nsamples = 7\nvalue = 0.779"] ;
461 -> 597 ;
598 [label="song_popularity <= 117169.0\nmse = 0.002\nsamples = 3\nvalue = 0.907"] ;
597 -> 598 ;
599 [label="song_popularity <= 117111.0\nmse = 0.0\nsamples = 2\nvalue = 0.876"] ;
598 -> 599 ;
600 [label="mse = 0.0\nsamples = 1\nvalue = 0.881"] ;
599 -> 600 ;
601 [label="mse = 0.0\nsamples = 1\nvalue = 0.872"] ;
599 -> 601 ;
602 [label="mse = 0.0\nsamples = 1\nvalue = 0.969"] ;
598 -> 602 ;
603 [label="song_popularity <= 117353.5\nmse = 0.111\nsamples = 4\nvalue = 0.682"] ;
597 -> 603 ;
604 [label="mse = 0.0\nsamples = 1\nvalue = 0.184"] ;
603 -> 604 ;
605 [label="song_popularity <= 117535.0\nmse = 0.038\nsamples = 3\nvalue = 0.849"] ;
603 -> 605 ;
606 [label="song_popularity <= 117447.0\nmse = 0.0\nsamples = 2\nvalue = 0.986"] ;
605 -> 606 ;
607 [label="mse = 0.0\nsamples = 1\nvalue = 0.993"] ;
606 -> 607 ;
608 [label="mse = 0.0\nsamples = 1\nvalue = 0.98"] ;
606 -> 608 ;
609 [label="mse = -0.0\nsamples = 1\nvalue = 0.573"] ;
605 -> 609 ;
610 [label="song_popularity <= 122741.5\nmse = 0.119\nsamples = 172\nvalue = 0.475"] ;
460 -> 610 ;
611 [label="song_popularity <= 121717.0\nmse = 0.113\nsamples = 59\nvalue = 0.418"] ;
610 -> 611 ;
612 [label="song_popularity <= 121413.5\nmse = 0.114\nsamples = 48\nvalue = 0.461"] ;
611 -> 612 ;
613 [label="song_popularity <= 120549.5\nmse = 0.123\nsamples = 42\nvalue = 0.436"] ;
612 -> 613 ;
614 [label="song_popularity <= 120086.5\nmse = 0.127\nsamples = 34\nvalue = 0.485"] ;
613 -> 614 ;
615 [label="song_popularity <= 118136.5\nmse = 0.116\nsamples = 27\nvalue = 0.428"] ;
614 -> 615 ;
616 [label="song_popularity <= 117981.5\nmse = 0.028\nsamples = 3\nvalue = 0.236"] ;
615 -> 616 ;
617 [label="song_popularity <= 117817.0\nmse = 0.009\nsamples = 2\nvalue = 0.341"] ;
616 -> 617 ;
618 [label="mse = 0.0\nsamples = 1\nvalue = 0.246"] ;
617 -> 618 ;
619 [label="mse = 0.0\nsamples = 1\nvalue = 0.436"] ;
617 -> 619 ;
620 [label="mse = 0.0\nsamples = 1\nvalue = 0.027"] ;
616 -> 620 ;
621 [label="song_popularity <= 118290.0\nmse = 0.122\nsamples = 24\nvalue = 0.452"] ;
615 -> 621 ;
622 [label="mse = 0.0\nsamples = 1\nvalue = 0.788"] ;
621 -> 622 ;
623 [label="song_popularity <= 118854.0\nmse = 0.122\nsamples = 23\nvalue = 0.438"] ;
621 -> 623 ;
624 [label="song_popularity <= 118657.5\nmse = 0.128\nsamples = 6\nvalue = 0.317"] ;
623 -> 624 ;
625 [label="song_popularity <= 118571.0\nmse = 0.122\nsamples = 4\nvalue = 0.47"] ;
624 -> 625 ;
626 [label="song_popularity <= 118446.5\nmse = 0.04\nsamples = 3\nvalue = 0.295"] ;
625 -> 626 ;
627 [label="song_popularity <= 118317.5\nmse = 0.013\nsamples = 2\nvalue = 0.419"] ;
626 -> 627 ;
628 [label="mse = 0.0\nsamples = 1\nvalue = 0.534"] ;
627 -> 628 ;
629 [label="mse = -0.0\nsamples = 1\nvalue = 0.304"] ;
627 -> 629 ;
630 [label="mse = 0.0\nsamples = 1\nvalue = 0.046"] ;
626 -> 630 ;
631 [label="mse = 0.0\nsamples = 1\nvalue = 0.995"] ;
625 -> 631 ;
632 [label="song_popularity <= 118754.5\nmse = 0.0\nsamples = 2\nvalue = 0.011"] ;
624 -> 632 ;
633 [label="mse = 0.0\nsamples = 1\nvalue = 0.01"] ;
632 -> 633 ;
634 [label="mse = 0.0\nsamples = 1\nvalue = 0.012"] ;
632 -> 634 ;
635 [label="song_popularity <= 119066.5\nmse = 0.113\nsamples = 17\nvalue = 0.48"] ;
623 -> 635 ;
636 [label="song_popularity <= 118966.0\nmse = 0.002\nsamples = 2\nvalue = 0.943"] ;
635 -> 636 ;
637 [label="mse = 0.0\nsamples = 1\nvalue = 0.893"] ;
636 -> 637 ;
638 [label="mse = -0.0\nsamples = 1\nvalue = 0.993"] ;
636 -> 638 ;
639 [label="song_popularity <= 119624.5\nmse = 0.095\nsamples = 15\nvalue = 0.418"] ;
635 -> 639 ;
640 [label="song_popularity <= 119346.0\nmse = 0.097\nsamples = 6\nvalue = 0.315"] ;
639 -> 640 ;
641 [label="song_popularity <= 119252.5\nmse = 0.085\nsamples = 4\nvalue = 0.457"] ;
640 -> 641 ;
642 [label="song_popularity <= 119159.5\nmse = 0.051\nsamples = 3\nvalue = 0.331"] ;
641 -> 642 ;
643 [label="song_popularity <= 119139.5\nmse = 0.052\nsamples = 2\nvalue = 0.242"] ;
642 -> 643 ;
644 [label="mse = 0.0\nsamples = 1\nvalue = 0.469"] ;
643 -> 644 ;
645 [label="mse = 0.0\nsamples = 1\nvalue = 0.014"] ;
643 -> 645 ;
646 [label="mse = 0.0\nsamples = 1\nvalue = 0.511"] ;
642 -> 646 ;
647 [label="mse = 0.0\nsamples = 1\nvalue = 0.832"] ;
641 -> 647 ;
648 [label="song_popularity <= 119438.0\nmse = 0.0\nsamples = 2\nvalue = 0.031"] ;
640 -> 648 ;
649 [label="mse = 0.0\nsamples = 1\nvalue = 0.039"] ;
648 -> 649 ;
650 [label="mse = 0.0\nsamples = 1\nvalue = 0.024"] ;
648 -> 650 ;
651 [label="song_popularity <= 119766.5\nmse = 0.082\nsamples = 9\nvalue = 0.487"] ;
639 -> 651 ;
652 [label="mse = 0.0\nsamples = 1\nvalue = 0.995"] ;
651 -> 652 ;
653 [label="song_popularity <= 119944.0\nmse = 0.056\nsamples = 8\nvalue = 0.424"] ;
651 -> 653 ;
654 [label="song_popularity <= 119886.5\nmse = 0.001\nsamples = 3\nvalue = 0.576"] ;
653 -> 654 ;
655 [label="song_popularity <= 119820.0\nmse = 0.0\nsamples = 2\nvalue = 0.559"] ;
654 -> 655 ;
656 [label="mse = 0.0\nsamples = 1\nvalue = 0.579"] ;
655 -> 656 ;
657 [label="mse = 0.0\nsamples = 1\nvalue = 0.539"] ;
655 -> 657 ;
658 [label="mse = 0.0\nsamples = 1\nvalue = 0.609"] ;
654 -> 658 ;
659 [label="song_popularity <= 119977.5\nmse = 0.068\nsamples = 5\nvalue = 0.333"] ;
653 -> 659 ;
660 [label="mse = 0.0\nsamples = 1\nvalue = 0.044"] ;
659 -> 660 ;
661 [label="mse = 0.059\nsamples = 4\nvalue = 0.405"] ;
659 -> 661 ;
662 [label="song_popularity <= 120234.5\nmse = 0.109\nsamples = 7\nvalue = 0.702"] ;
614 -> 662 ;
663 [label="song_popularity <= 120187.0\nmse = 0.012\nsamples = 3\nvalue = 0.862"] ;
662 -> 663 ;
664 [label="mse = 0.0\nsamples = 1\nvalue = 0.714"] ;
663 -> 664 ;
665 [label="song_popularity <= 120208.0\nmse = 0.001\nsamples = 2\nvalue = 0.936"] ;
663 -> 665 ;
666 [label="mse = 0.0\nsamples = 1\nvalue = 0.966"] ;
665 -> 666 ;
667 [label="mse = 0.0\nsamples = 1\nvalue = 0.906"] ;
665 -> 667 ;
668 [label="song_popularity <= 120499.5\nmse = 0.149\nsamples = 4\nvalue = 0.582"] ;
662 -> 668 ;
669 [label="song_popularity <= 120431.0\nmse = 0.123\nsamples = 3\nvalue = 0.445"] ;
668 -> 669 ;
670 [label="song_popularity <= 120333.0\nmse = 0.095\nsamples = 2\nvalue = 0.618"] ;
669 -> 670 ;
671 [label="mse = 0.0\nsamples = 1\nvalue = 0.31"] ;
670 -> 671 ;
672 [label="mse = 0.0\nsamples = 1\nvalue = 0.925"] ;
670 -> 672 ;
673 [label="mse = -0.0\nsamples = 1\nvalue = 0.099"] ;
669 -> 673 ;
674 [label="mse = -0.0\nsamples = 1\nvalue = 0.995"] ;
668 -> 674 ;
675 [label="song_popularity <= 121322.0\nmse = 0.056\nsamples = 8\nvalue = 0.23"] ;
613 -> 675 ;
676 [label="song_popularity <= 121233.0\nmse = 0.072\nsamples = 5\nvalue = 0.31"] ;
675 -> 676 ;
677 [label="song_popularity <= 120993.5\nmse = 0.043\nsamples = 4\nvalue = 0.213"] ;
676 -> 677 ;
678 [label="song_popularity <= 120650.0\nmse = 0.037\nsamples = 3\nvalue = 0.283"] ;
677 -> 678 ;
679 [label="mse = 0.0\nsamples = 1\nvalue = 0.103"] ;
678 -> 679 ;
680 [label="song_popularity <= 120788.5\nmse = 0.032\nsamples = 2\nvalue = 0.373"] ;
678 -> 680 ;
681 [label="mse = 0.0\nsamples = 1\nvalue = 0.551"] ;
680 -> 681 ;
682 [label="mse = 0.0\nsamples = 1\nvalue = 0.195"] ;
680 -> 682 ;
683 [label="mse = -0.0\nsamples = 1\nvalue = 0.002"] ;
677 -> 683 ;
684 [label="mse = 0.0\nsamples = 1\nvalue = 0.7"] ;
676 -> 684 ;
685 [label="song_popularity <= 121342.0\nmse = 0.001\nsamples = 3\nvalue = 0.096"] ;
675 -> 685 ;
686 [label="mse = 0.0\nsamples = 1\nvalue = 0.13"] ;
685 -> 686 ;
687 [label="mse = 0.0\nsamples = 2\nvalue = 0.08"] ;
685 -> 687 ;
688 [label="song_popularity <= 121684.5\nmse = 0.013\nsamples = 6\nvalue = 0.633"] ;
612 -> 688 ;
689 [label="song_popularity <= 121576.5\nmse = 0.003\nsamples = 4\nvalue = 0.669"] ;
688 -> 689 ;
690 [label="mse = 0.0\nsamples = 1\nvalue = 0.731"] ;
689 -> 690 ;
691 [label="song_popularity <= 121676.0\nmse = 0.002\nsamples = 3\nvalue = 0.648"] ;
689 -> 691 ;
692 [label="mse = 0.0\nsamples = 1\nvalue = 0.585"] ;
691 -> 692 ;
693 [label="mse = -0.0\nsamples = 2\nvalue = 0.68"] ;
691 -> 693 ;
694 [label="song_popularity <= 121701.5\nmse = 0.026\nsamples = 2\nvalue = 0.562"] ;
688 -> 694 ;
695 [label="mse = 0.0\nsamples = 1\nvalue = 0.401"] ;
694 -> 695 ;
696 [label="mse = 0.0\nsamples = 1\nvalue = 0.722"] ;
694 -> 696 ;
697 [label="song_popularity <= 122033.0\nmse = 0.067\nsamples = 11\nvalue = 0.23"] ;
611 -> 697 ;
698 [label="song_popularity <= 121993.0\nmse = 0.018\nsamples = 6\nvalue = 0.113"] ;
697 -> 698 ;
699 [label="song_popularity <= 121740.0\nmse = 0.019\nsamples = 5\nvalue = 0.135"] ;
698 -> 699 ;
700 [label="mse = 0.0\nsamples = 1\nvalue = 0.003"] ;
699 -> 700 ;
701 [label="song_popularity <= 121820.0\nmse = 0.018\nsamples = 4\nvalue = 0.168"] ;
699 -> 701 ;
702 [label="mse = 0.0\nsamples = 1\nvalue = 0.358"] ;
701 -> 702 ;
703 [label="song_popularity <= 121885.0\nmse = 0.008\nsamples = 3\nvalue = 0.105"] ;
701 -> 703 ;
704 [label="mse = 0.0\nsamples = 1\nvalue = 0.002"] ;
703 -> 704 ;
705 [label="song_popularity <= 121938.0\nmse = 0.005\nsamples = 2\nvalue = 0.156"] ;
703 -> 705 ;
706 [label="mse = 0.0\nsamples = 1\nvalue = 0.223"] ;
705 -> 706 ;
707 [label="mse = -0.0\nsamples = 1\nvalue = 0.089"] ;
705 -> 707 ;
708 [label="mse = 0.0\nsamples = 1\nvalue = 0.001"] ;
698 -> 708 ;
709 [label="song_popularity <= 122337.0\nmse = 0.088\nsamples = 5\nvalue = 0.371"] ;
697 -> 709 ;
710 [label="song_popularity <= 122182.0\nmse = 0.013\nsamples = 3\nvalue = 0.602"] ;
709 -> 710 ;
711 [label="mse = 0.0\nsamples = 2\nvalue = 0.684"] ;
710 -> 711 ;
712 [label="mse = -0.0\nsamples = 1\nvalue = 0.439"] ;
710 -> 712 ;
713 [label="song_popularity <= 122541.0\nmse = 0.0\nsamples = 2\nvalue = 0.025"] ;
709 -> 713 ;
714 [label="mse = 0.0\nsamples = 1\nvalue = 0.042"] ;
713 -> 714 ;
715 [label="mse = -0.0\nsamples = 1\nvalue = 0.008"] ;
713 -> 715 ;
716 [label="song_popularity <= 122800.0\nmse = 0.119\nsamples = 113\nvalue = 0.504"] ;
610 -> 716 ;
717 [label="mse = 0.0\nsamples = 1\nvalue = 0.985"] ;
716 -> 717 ;
718 [label="song_popularity <= 126346.0\nmse = 0.118\nsamples = 112\nvalue = 0.5"] ;
716 -> 718 ;
719 [label="song_popularity <= 125380.0\nmse = 0.117\nsamples = 68\nvalue = 0.534"] ;
718 -> 719 ;
720 [label="song_popularity <= 125313.0\nmse = 0.115\nsamples = 49\nvalue = 0.498"] ;
719 -> 720 ;
721 [label="song_popularity <= 125286.0\nmse = 0.113\nsamples = 48\nvalue = 0.508"] ;
720 -> 721 ;
722 [label="song_popularity <= 124865.0\nmse = 0.111\nsamples = 47\nvalue = 0.498"] ;
721 -> 722 ;
723 [label="song_popularity <= 124555.5\nmse = 0.114\nsamples = 37\nvalue = 0.525"] ;
722 -> 723 ;
724 [label="song_popularity <= 124504.0\nmse = 0.11\nsamples = 34\nvalue = 0.493"] ;
723 -> 724 ;
725 [label="song_popularity <= 124359.0\nmse = 0.107\nsamples = 33\nvalue = 0.507"] ;
724 -> 725 ;
726 [label="song_popularity <= 123622.0\nmse = 0.103\nsamples = 32\nvalue = 0.492"] ;
725 -> 726 ;
727 [label="song_popularity <= 123299.0\nmse = 0.11\nsamples = 22\nvalue = 0.533"] ;
726 -> 727 ;
728 [label="song_popularity <= 123216.5\nmse = 0.104\nsamples = 17\nvalue = 0.465"] ;
727 -> 728 ;
729 [label="song_popularity <= 122858.0\nmse = 0.09\nsamples = 14\nvalue = 0.541"] ;
728 -> 729 ;
730 [label="mse = 0.0\nsamples = 1\nvalue = 0.16"] ;
729 -> 730 ;
731 [label="song_popularity <= 122939.5\nmse = 0.085\nsamples = 13\nvalue = 0.57"] ;
729 -> 731 ;
732 [label="mse = 0.0\nsamples = 1\nvalue = 0.856"] ;
731 -> 732 ;
733 [label="song_popularity <= 123126.5\nmse = 0.084\nsamples = 12\nvalue = 0.547"] ;
731 -> 733 ;
734 [label="song_popularity <= 123098.0\nmse = 0.09\nsamples = 7\nvalue = 0.459"] ;
733 -> 734 ;
735 [label="song_popularity <= 122993.0\nmse = 0.069\nsamples = 6\nvalue = 0.531"] ;
734 -> 735 ;
736 [label="mse = 0.0\nsamples = 1\nvalue = 0.274"] ;
735 -> 736 ;
737 [label="song_popularity <= 123020.5\nmse = 0.067\nsamples = 5\nvalue = 0.582"] ;
735 -> 737 ;
738 [label="mse = 0.093\nsamples = 3\nvalue = 0.661"] ;
737 -> 738 ;
739 [label="song_popularity <= 123058.5\nmse = 0.003\nsamples = 2\nvalue = 0.464"] ;
737 -> 739 ;
740 [label="mse = 0.0\nsamples = 1\nvalue = 0.406"] ;
739 -> 740 ;
741 [label="mse = 0.0\nsamples = 1\nvalue = 0.521"] ;
739 -> 741 ;
742 [label="mse = 0.0\nsamples = 1\nvalue = 0.03"] ;
734 -> 742 ;
743 [label="song_popularity <= 123186.5\nmse = 0.051\nsamples = 5\nvalue = 0.669"] ;
733 -> 743 ;
744 [label="song_popularity <= 123166.5\nmse = 0.038\nsamples = 4\nvalue = 0.742"] ;
743 -> 744 ;
745 [label="song_popularity <= 123146.5\nmse = 0.045\nsamples = 3\nvalue = 0.705"] ;
744 -> 745 ;
746 [label="mse = 0.0\nsamples = 1\nvalue = 0.708"] ;
745 -> 746 ;
747 [label="mse = 0.067\nsamples = 2\nvalue = 0.704"] ;
745 -> 747 ;
748 [label="mse = -0.0\nsamples = 1\nvalue = 0.851"] ;
744 -> 748 ;
749 [label="mse = -0.0\nsamples = 1\nvalue = 0.377"] ;
743 -> 749 ;
750 [label="song_popularity <= 123236.5\nmse = 0.019\nsamples = 3\nvalue = 0.109"] ;
728 -> 750 ;
751 [label="mse = 0.0\nsamples = 1\nvalue = 0.001"] ;
750 -> 751 ;
752 [label="song_popularity <= 123248.5\nmse = 0.02\nsamples = 2\nvalue = 0.163"] ;
750 -> 752 ;
753 [label="mse = 0.0\nsamples = 1\nvalue = 0.305"] ;
752 -> 753 ;
754 [label="mse = 0.0\nsamples = 1\nvalue = 0.022"] ;
752 -> 754 ;
755 [label="song_popularity <= 123442.0\nmse = 0.06\nsamples = 5\nvalue = 0.764"] ;
727 -> 755 ;
756 [label="song_popularity <= 123362.0\nmse = 0.015\nsamples = 3\nvalue = 0.853"] ;
755 -> 756 ;
757 [label="song_popularity <= 123350.5\nmse = 0.009\nsamples = 2\nvalue = 0.784"] ;
756 -> 757 ;
758 [label="mse = 0.0\nsamples = 1\nvalue = 0.878"] ;
757 -> 758 ;
759 [label="mse = -0.0\nsamples = 1\nvalue = 0.69"] ;
757 -> 759 ;
760 [label="mse = -0.0\nsamples = 1\nvalue = 0.991"] ;
756 -> 760 ;
761 [label="song_popularity <= 123549.0\nmse = 0.097\nsamples = 2\nvalue = 0.63"] ;
755 -> 761 ;
762 [label="mse = 0.0\nsamples = 1\nvalue = 0.318"] ;
761 -> 762 ;
763 [label="mse = 0.0\nsamples = 1\nvalue = 0.942"] ;
761 -> 763 ;
764 [label="song_popularity <= 124114.0\nmse = 0.076\nsamples = 10\nvalue = 0.402"] ;
726 -> 764 ;
765 [label="song_popularity <= 124013.0\nmse = 0.067\nsamples = 7\nvalue = 0.357"] ;
764 -> 765 ;
766 [label="song_popularity <= 123980.0\nmse = 0.058\nsamples = 5\nvalue = 0.45"] ;
765 -> 766 ;
767 [label="song_popularity <= 123813.0\nmse = 0.029\nsamples = 2\nvalue = 0.288"] ;
766 -> 767 ;
768 [label="mse = 0.0\nsamples = 1\nvalue = 0.458"] ;
767 -> 768 ;
769 [label="mse = 0.0\nsamples = 1\nvalue = 0.119"] ;
767 -> 769 ;
770 [label="mse = 0.048\nsamples = 3\nvalue = 0.557"] ;
766 -> 770 ;
771 [label="song_popularity <= 124040.5\nmse = 0.015\nsamples = 2\nvalue = 0.124"] ;
765 -> 771 ;
772 [label="mse = 0.0\nsamples = 1\nvalue = 0.0"] ;
771 -> 772 ;
773 [label="mse = 0.0\nsamples = 1\nvalue = 0.247"] ;
771 -> 773 ;
774 [label="song_popularity <= 124202.0\nmse = 0.079\nsamples = 3\nvalue = 0.509"] ;
764 -> 774 ;
775 [label="mse = 0.0\nsamples = 1\nvalue = 0.883"] ;
774 -> 775 ;
776 [label="song_popularity <= 124233.0\nmse = 0.013\nsamples = 2\nvalue = 0.322"] ;
774 -> 776 ;
777 [label="mse = 0.0\nsamples = 1\nvalue = 0.437"] ;
776 -> 777 ;
778 [label="mse = -0.0\nsamples = 1\nvalue = 0.206"] ;
776 -> 778 ;
779 [label="mse = 0.0\nsamples = 1\nvalue = 0.982"] ;
725 -> 779 ;
780 [label="mse = 0.0\nsamples = 1\nvalue = 0.035"] ;
724 -> 780 ;
781 [label="song_popularity <= 124587.5\nmse = 0.007\nsamples = 3\nvalue = 0.894"] ;
723 -> 781 ;
782 [label="mse = 0.0\nsamples = 1\nvalue = 0.788"] ;
781 -> 782 ;
783 [label="song_popularity <= 124721.0\nmse = 0.001\nsamples = 2\nvalue = 0.946"] ;
781 -> 783 ;
784 [label="mse = 0.0\nsamples = 1\nvalue = 0.985"] ;
783 -> 784 ;
785 [label="mse = -0.0\nsamples = 1\nvalue = 0.908"] ;
783 -> 785 ;
786 [label="song_popularity <= 124964.0\nmse = 0.088\nsamples = 10\nvalue = 0.396"] ;
722 -> 786 ;
787 [label="song_popularity <= 124901.5\nmse = 0.011\nsamples = 3\nvalue = 0.257"] ;
786 -> 787 ;
788 [label="mse = 0.0\nsamples = 1\nvalue = 0.381"] ;
787 -> 788 ;
789 [label="song_popularity <= 124940.0\nmse = 0.005\nsamples = 2\nvalue = 0.196"] ;
787 -> 789 ;
790 [label="mse = 0.0\nsamples = 1\nvalue = 0.122"] ;
789 -> 790 ;
791 [label="mse = 0.0\nsamples = 1\nvalue = 0.269"] ;
789 -> 791 ;
792 [label="song_popularity <= 125033.5\nmse = 0.109\nsamples = 7\nvalue = 0.455"] ;
786 -> 792 ;
793 [label="mse = 0.0\nsamples = 1\nvalue = 0.895"] ;
792 -> 793 ;
794 [label="song_popularity <= 125192.5\nmse = 0.089\nsamples = 6\nvalue = 0.382"] ;
792 -> 794 ;
795 [label="song_popularity <= 125126.5\nmse = 0.035\nsamples = 3\nvalue = 0.247"] ;
794 -> 795 ;
796 [label="mse = 0.0\nsamples = 1\nvalue = 0.457"] ;
795 -> 796 ;
797 [label="song_popularity <= 125172.5\nmse = 0.02\nsamples = 2\nvalue = 0.142"] ;
795 -> 797 ;
798 [label="mse = 0.0\nsamples = 1\nvalue = 0.001"] ;
797 -> 798 ;
799 [label="mse = 0.0\nsamples = 1\nvalue = 0.283"] ;
797 -> 799 ;
800 [label="song_popularity <= 125208.5\nmse = 0.107\nsamples = 3\nvalue = 0.517"] ;
794 -> 800 ;
801 [label="mse = 0.0\nsamples = 1\nvalue = 0.952"] ;
800 -> 801 ;
802 [label="song_popularity <= 125241.5\nmse = 0.019\nsamples = 2\nvalue = 0.3"] ;
800 -> 802 ;
803 [label="mse = 0.0\nsamples = 1\nvalue = 0.163"] ;
802 -> 803 ;
804 [label="mse = 0.0\nsamples = 1\nvalue = 0.437"] ;
802 -> 804 ;
805 [label="mse = 0.0\nsamples = 1\nvalue = 0.971"] ;
721 -> 805 ;
806 [label="mse = -0.0\nsamples = 1\nvalue = 0.038"] ;
720 -> 806 ;
807 [label="song_popularity <= 125693.5\nmse = 0.108\nsamples = 19\nvalue = 0.627"] ;
719 -> 807 ;
808 [label="song_popularity <= 125586.0\nmse = 0.03\nsamples = 7\nvalue = 0.799"] ;
807 -> 808 ;
809 [label="song_popularity <= 125489.5\nmse = 0.033\nsamples = 4\nvalue = 0.711"] ;
808 -> 809 ;
810 [label="song_popularity <= 125459.0\nmse = 0.033\nsamples = 2\nvalue = 0.808"] ;
809 -> 810 ;
811 [label="mse = 0.0\nsamples = 1\nvalue = 0.627"] ;
810 -> 811 ;
812 [label="mse = 0.0\nsamples = 1\nvalue = 0.99"] ;
810 -> 812 ;
813 [label="song_popularity <= 125503.5\nmse = 0.014\nsamples = 2\nvalue = 0.614"] ;
809 -> 813 ;
814 [label="mse = 0.0\nsamples = 1\nvalue = 0.494"] ;
813 -> 814 ;
815 [label="mse = -0.0\nsamples = 1\nvalue = 0.734"] ;
813 -> 815 ;
816 [label="song_popularity <= 125673.5\nmse = 0.003\nsamples = 3\nvalue = 0.917"] ;
808 -> 816 ;
817 [label="mse = 0.0\nsamples = 2\nvalue = 0.881"] ;
816 -> 817 ;
818 [label="mse = 0.0\nsamples = 1\nvalue = 0.988"] ;
816 -> 818 ;
819 [label="song_popularity <= 125866.0\nmse = 0.126\nsamples = 12\nvalue = 0.526"] ;
807 -> 819 ;
820 [label="song_popularity <= 125744.5\nmse = 0.038\nsamples = 3\nvalue = 0.242"] ;
819 -> 820 ;
821 [label="mse = 0.0\nsamples = 1\nvalue = 0.493"] ;
820 -> 821 ;
822 [label="song_popularity <= 125804.5\nmse = 0.01\nsamples = 2\nvalue = 0.116"] ;
820 -> 822 ;
823 [label="mse = 0.0\nsamples = 1\nvalue = 0.015"] ;
822 -> 823 ;
824 [label="mse = 0.0\nsamples = 1\nvalue = 0.218"] ;
822 -> 824 ;
825 [label="song_popularity <= 126033.5\nmse = 0.12\nsamples = 9\nvalue = 0.621"] ;
819 -> 825 ;
826 [label="song_popularity <= 125944.5\nmse = 0.018\nsamples = 3\nvalue = 0.855"] ;
825 -> 826 ;
827 [label="mse = 0.012\nsamples = 2\nvalue = 0.786"] ;
826 -> 827 ;
828 [label="mse = 0.0\nsamples = 1\nvalue = 0.993"] ;
826 -> 828 ;
829 [label="song_popularity <= 126132.5\nmse = 0.13\nsamples = 6\nvalue = 0.504"] ;
825 -> 829 ;
830 [label="song_popularity <= 126104.5\nmse = 0.019\nsamples = 2\nvalue = 0.137"] ;
829 -> 830 ;
831 [label="mse = 0.0\nsamples = 1\nvalue = 0.001"] ;
830 -> 831 ;
832 [label="mse = 0.0\nsamples = 1\nvalue = 0.274"] ;
830 -> 832 ;
833 [label="song_popularity <= 126151.5\nmse = 0.085\nsamples = 4\nvalue = 0.687"] ;
829 -> 833 ;
834 [label="mse = 0.0\nsamples = 1\nvalue = 0.931"] ;
833 -> 834 ;
835 [label="song_popularity <= 126181.5\nmse = 0.086\nsamples = 3\nvalue = 0.606"] ;
833 -> 835 ;
836 [label="mse = 0.0\nsamples = 1\nvalue = 0.246"] ;
835 -> 836 ;
837 [label="song_popularity <= 126270.0\nmse = 0.032\nsamples = 2\nvalue = 0.786"] ;
835 -> 837 ;
838 [label="mse = 0.0\nsamples = 1\nvalue = 0.966"] ;
837 -> 838 ;
839 [label="mse = -0.0\nsamples = 1\nvalue = 0.606"] ;
837 -> 839 ;
840 [label="song_popularity <= 126406.5\nmse = 0.116\nsamples = 44\nvalue = 0.448"] ;
718 -> 840 ;
841 [label="song_popularity <= 126379.0\nmse = 0.001\nsamples = 4\nvalue = 0.045"] ;
840 -> 841 ;
842 [label="song_popularity <= 126362.5\nmse = 0.0\nsamples = 2\nvalue = 0.012"] ;
841 -> 842 ;
843 [label="mse = 0.0\nsamples = 1\nvalue = 0.004"] ;
842 -> 843 ;
844 [label="mse = 0.0\nsamples = 1\nvalue = 0.019"] ;
842 -> 844 ;
845 [label="song_popularity <= 126392.5\nmse = 0.0\nsamples = 2\nvalue = 0.079"] ;
841 -> 845 ;
846 [label="mse = 0.0\nsamples = 1\nvalue = 0.06"] ;
845 -> 846 ;
847 [label="mse = 0.0\nsamples = 1\nvalue = 0.097"] ;
845 -> 847 ;
848 [label="song_popularity <= 126426.5\nmse = 0.11\nsamples = 40\nvalue = 0.488"] ;
840 -> 848 ;
849 [label="mse = 0.0\nsamples = 1\nvalue = 0.959"] ;
848 -> 849 ;
850 [label="song_popularity <= 126726.0\nmse = 0.107\nsamples = 39\nvalue = 0.476"] ;
848 -> 850 ;
851 [label="song_popularity <= 126536.5\nmse = 0.047\nsamples = 5\nvalue = 0.281"] ;
850 -> 851 ;
852 [label="song_popularity <= 126486.5\nmse = 0.005\nsamples = 2\nvalue = 0.528"] ;
851 -> 852 ;
853 [label="mse = 0.0\nsamples = 1\nvalue = 0.601"] ;
852 -> 853 ;
854 [label="mse = 0.0\nsamples = 1\nvalue = 0.454"] ;
852 -> 854 ;
855 [label="song_popularity <= 126583.0\nmse = 0.007\nsamples = 3\nvalue = 0.117"] ;
851 -> 855 ;
856 [label="mse = 0.0\nsamples = 1\nvalue = 0.178"] ;
855 -> 856 ;
857 [label="song_popularity <= 126659.5\nmse = 0.007\nsamples = 2\nvalue = 0.087"] ;
855 -> 857 ;
858 [label="mse = 0.0\nsamples = 1\nvalue = 0.0"] ;
857 -> 858 ;
859 [label="mse = 0.0\nsamples = 1\nvalue = 0.173"] ;
857 -> 859 ;
860 [label="song_popularity <= 126877.5\nmse = 0.109\nsamples = 34\nvalue = 0.504"] ;
850 -> 860 ;
861 [label="song_popularity <= 126808.0\nmse = 0.004\nsamples = 3\nvalue = 0.871"] ;
860 -> 861 ;
862 [label="mse = 0.0\nsamples = 1\nvalue = 0.955"] ;
861 -> 862 ;
863 [label="song_popularity <= 126866.0\nmse = 0.001\nsamples = 2\nvalue = 0.829"] ;
861 -> 863 ;
864 [label="mse = 0.0\nsamples = 1\nvalue = 0.792"] ;
863 -> 864 ;
865 [label="mse = 0.0\nsamples = 1\nvalue = 0.866"] ;
863 -> 865 ;
866 [label="song_popularity <= 127546.5\nmse = 0.105\nsamples = 31\nvalue = 0.469"] ;
860 -> 866 ;
867 [label="song_popularity <= 127180.0\nmse = 0.102\nsamples = 19\nvalue = 0.415"] ;
866 -> 867 ;
868 [label="song_popularity <= 126958.0\nmse = 0.071\nsamples = 8\nvalue = 0.536"] ;
867 -> 868 ;
869 [label="song_popularity <= 126900.0\nmse = 0.003\nsamples = 3\nvalue = 0.325"] ;
868 -> 869 ;
870 [label="mse = 0.0\nsamples = 1\nvalue = 0.365"] ;
869 -> 870 ;
871 [label="song_popularity <= 126938.0\nmse = 0.003\nsamples = 2\nvalue = 0.305"] ;
869 -> 871 ;
872 [label="mse = 0.0\nsamples = 1\nvalue = 0.248"] ;
871 -> 872 ;
873 [label="mse = 0.0\nsamples = 1\nvalue = 0.362"] ;
871 -> 873 ;
874 [label="song_popularity <= 127009.0\nmse = 0.07\nsamples = 5\nvalue = 0.662"] ;
868 -> 874 ;
875 [label="mse = 0.0\nsamples = 2\nvalue = 0.787"] ;
874 -> 875 ;
876 [label="song_popularity <= 127065.5\nmse = 0.099\nsamples = 3\nvalue = 0.579"] ;
874 -> 876 ;
877 [label="mse = 0.0\nsamples = 1\nvalue = 0.204"] ;
876 -> 877 ;
878 [label="song_popularity <= 127116.5\nmse = 0.044\nsamples = 2\nvalue = 0.766"] ;
876 -> 878 ;
879 [label="mse = 0.0\nsamples = 1\nvalue = 0.975"] ;
878 -> 879 ;
880 [label="mse = 0.0\nsamples = 1\nvalue = 0.557"] ;
878 -> 880 ;
881 [label="song_popularity <= 127238.0\nmse = 0.106\nsamples = 11\nvalue = 0.327"] ;
867 -> 881 ;
882 [label="song_popularity <= 127202.0\nmse = 0.0\nsamples = 2\nvalue = 0.008"] ;
881 -> 882 ;
883 [label="mse = 0.0\nsamples = 1\nvalue = 0.015"] ;
882 -> 883 ;
884 [label="mse = -0.0\nsamples = 1\nvalue = 0.0"] ;
882 -> 884 ;
885 [label="song_popularity <= 127526.5\nmse = 0.102\nsamples = 9\nvalue = 0.398"] ;
881 -> 885 ;
886 [label="song_popularity <= 127339.5\nmse = 0.095\nsamples = 8\nvalue = 0.445"] ;
885 -> 886 ;
887 [label="song_popularity <= 127284.5\nmse = 0.042\nsamples = 3\nvalue = 0.329"] ;
886 -> 887 ;
888 [label="mse = 0.0\nsamples = 2\nvalue = 0.474"] ;
887 -> 888 ;
889 [label="mse = -0.0\nsamples = 1\nvalue = 0.039"] ;
887 -> 889 ;
890 [label="song_popularity <= 127384.0\nmse = 0.114\nsamples = 5\nvalue = 0.515"] ;
886 -> 890 ;
891 [label="mse = 0.0\nsamples = 1\nvalue = 0.991"] ;
890 -> 891 ;
892 [label="song_popularity <= 127473.0\nmse = 0.071\nsamples = 4\nvalue = 0.396"] ;
890 -> 892 ;
893 [label="song_popularity <= 127406.0\nmse = 0.058\nsamples = 2\nvalue = 0.241"] ;
892 -> 893 ;
894 [label="mse = 0.0\nsamples = 1\nvalue = 0.481"] ;
893 -> 894 ;
895 [label="mse = 0.0\nsamples = 1\nvalue = 0.0"] ;
893 -> 895 ;
896 [label="mse = 0.037\nsamples = 2\nvalue = 0.551"] ;
892 -> 896 ;
897 [label="mse = 0.0\nsamples = 1\nvalue = 0.025"] ;
885 -> 897 ;
898 [label="song_popularity <= 127821.0\nmse = 0.099\nsamples = 12\nvalue = 0.554"] ;
866 -> 898 ;
899 [label="song_popularity <= 127624.0\nmse = 0.084\nsamples = 5\nvalue = 0.733"] ;
898 -> 899 ;
900 [label="song_popularity <= 127584.0\nmse = 0.118\nsamples = 2\nvalue = 0.496"] ;
899 -> 900 ;
901 [label="mse = 0.0\nsamples = 1\nvalue = 0.84"] ;
900 -> 901 ;
902 [label="mse = 0.0\nsamples = 1\nvalue = 0.153"] ;
900 -> 902 ;
903 [label="song_popularity <= 127759.5\nmse = 0.0\nsamples = 3\nvalue = 0.89"] ;
899 -> 903 ;
904 [label="song_popularity <= 127693.0\nmse = 0.0\nsamples = 2\nvalue = 0.886"] ;
903 -> 904 ;
905 [label="mse = 0.0\nsamples = 1\nvalue = 0.882"] ;
904 -> 905 ;
906 [label="mse = 0.0\nsamples = 1\nvalue = 0.889"] ;
904 -> 906 ;
907 [label="mse = 0.0\nsamples = 1\nvalue = 0.9"] ;
903 -> 907 ;
908 [label="song_popularity <= 127894.5\nmse = 0.07\nsamples = 7\nvalue = 0.426"] ;
898 -> 908 ;
909 [label="mse = 0.0\nsamples = 1\nvalue = 0.121"] ;
908 -> 909 ;
910 [label="song_popularity <= 127940.0\nmse = 0.063\nsamples = 6\nvalue = 0.477"] ;
908 -> 910 ;
911 [label="song_popularity <= 127927.0\nmse = 0.032\nsamples = 2\nvalue = 0.64"] ;
910 -> 911 ;
912 [label="mse = 0.0\nsamples = 1\nvalue = 0.46"] ;
911 -> 912 ;
913 [label="mse = -0.0\nsamples = 1\nvalue = 0.82"] ;
911 -> 913 ;
914 [label="song_popularity <= 127975.0\nmse = 0.059\nsamples = 4\nvalue = 0.396"] ;
910 -> 914 ;
915 [label="mse = 0.0\nsamples = 1\nvalue = 0.011"] ;
914 -> 915 ;
916 [label="song_popularity <= 128006.0\nmse = 0.012\nsamples = 3\nvalue = 0.524"] ;
914 -> 916 ;
917 [label="mse = 0.0\nsamples = 1\nvalue = 0.367"] ;
916 -> 917 ;
918 [label="song_popularity <= 128090.5\nmse = 0.0\nsamples = 2\nvalue = 0.602"] ;
916 -> 918 ;
919 [label="mse = 0.0\nsamples = 1\nvalue = 0.617"] ;
918 -> 919 ;
920 [label="mse = -0.0\nsamples = 1\nvalue = 0.588"] ;
918 -> 920 ;
921 [label="song_popularity <= 128259.5\nmse = 0.039\nsamples = 8\nvalue = 0.77"] ;
459 -> 921 ;
922 [label="song_popularity <= 128206.0\nmse = 0.03\nsamples = 6\nvalue = 0.842"] ;
921 -> 922 ;
923 [label="mse = 0.025\nsamples = 2\nvalue = 0.646"] ;
922 -> 923 ;
924 [label="song_popularity <= 128251.5\nmse = 0.003\nsamples = 4\nvalue = 0.94"] ;
922 -> 924 ;
925 [label="song_popularity <= 128235.0\nmse = 0.001\nsamples = 3\nvalue = 0.967"] ;
924 -> 925 ;
926 [label="song_popularity <= 128216.5\nmse = 0.002\nsamples = 2\nvalue = 0.952"] ;
925 -> 926 ;
927 [label="mse = 0.0\nsamples = 1\nvalue = 0.992"] ;
926 -> 927 ;
928 [label="mse = 0.0\nsamples = 1\nvalue = 0.912"] ;
926 -> 928 ;
929 [label="mse = 0.0\nsamples = 1\nvalue = 0.996"] ;
925 -> 929 ;
930 [label="mse = 0.0\nsamples = 1\nvalue = 0.861"] ;
924 -> 930 ;
931 [label="song_popularity <= 128273.0\nmse = 0.003\nsamples = 2\nvalue = 0.552"] ;
921 -> 931 ;
932 [label="mse = 0.0\nsamples = 1\nvalue = 0.497"] ;
931 -> 932 ;
933 [label="mse = 0.0\nsamples = 1\nvalue = 0.608"] ;
931 -> 933 ;
934 [label="song_popularity <= 128537.5\nmse = 0.083\nsamples = 22\nvalue = 0.402"] ;
458 -> 934 ;
935 [label="song_popularity <= 128379.0\nmse = 0.022\nsamples = 7\nvalue = 0.22"] ;
934 -> 935 ;
936 [label="song_popularity <= 128366.0\nmse = 0.008\nsamples = 2\nvalue = 0.098"] ;
935 -> 936 ;
937 [label="mse = 0.0\nsamples = 1\nvalue = 0.188"] ;
936 -> 937 ;
938 [label="mse = 0.0\nsamples = 1\nvalue = 0.009"] ;
936 -> 938 ;
939 [label="song_popularity <= 128458.5\nmse = 0.019\nsamples = 5\nvalue = 0.269"] ;
935 -> 939 ;
940 [label="song_popularity <= 128433.0\nmse = 0.002\nsamples = 3\nvalue = 0.376"] ;
939 -> 940 ;
941 [label="song_popularity <= 128399.5\nmse = 0.001\nsamples = 2\nvalue = 0.35"] ;
940 -> 941 ;
942 [label="mse = 0.0\nsamples = 1\nvalue = 0.386"] ;
941 -> 942 ;
943 [label="mse = -0.0\nsamples = 1\nvalue = 0.313"] ;
941 -> 943 ;
944 [label="mse = 0.0\nsamples = 1\nvalue = 0.43"] ;
940 -> 944 ;
945 [label="song_popularity <= 128483.0\nmse = 0.001\nsamples = 2\nvalue = 0.108"] ;
939 -> 945 ;
946 [label="mse = 0.0\nsamples = 1\nvalue = 0.146"] ;
945 -> 946 ;
947 [label="mse = 0.0\nsamples = 1\nvalue = 0.07"] ;
945 -> 947 ;
948 [label="song_popularity <= 128586.5\nmse = 0.09\nsamples = 15\nvalue = 0.487"] ;
934 -> 948 ;
949 [label="mse = 0.0\nsamples = 1\nvalue = 0.869"] ;
948 -> 949 ;
950 [label="song_popularity <= 128977.5\nmse = 0.085\nsamples = 14\nvalue = 0.459"] ;
948 -> 950 ;
951 [label="song_popularity <= 128719.5\nmse = 0.051\nsamples = 4\nvalue = 0.316"] ;
950 -> 951 ;
952 [label="song_popularity <= 128633.0\nmse = 0.01\nsamples = 2\nvalue = 0.531"] ;
951 -> 952 ;
953 [label="mse = 0.0\nsamples = 1\nvalue = 0.429"] ;
952 -> 953 ;
954 [label="mse = -0.0\nsamples = 1\nvalue = 0.633"] ;
952 -> 954 ;
955 [label="song_popularity <= 128864.0\nmse = 0.0\nsamples = 2\nvalue = 0.102"] ;
951 -> 955 ;
956 [label="mse = 0.0\nsamples = 1\nvalue = 0.083"] ;
955 -> 956 ;
957 [label="mse = 0.0\nsamples = 1\nvalue = 0.121"] ;
955 -> 957 ;
958 [label="song_popularity <= 129019.5\nmse = 0.087\nsamples = 10\nvalue = 0.517"] ;
950 -> 958 ;
959 [label="mse = 0.007\nsamples = 2\nvalue = 0.852"] ;
958 -> 959 ;
960 [label="song_popularity <= 129333.5\nmse = 0.071\nsamples = 8\nvalue = 0.433"] ;
958 -> 960 ;
961 [label="song_popularity <= 129126.5\nmse = 0.065\nsamples = 6\nvalue = 0.489"] ;
960 -> 961 ;
962 [label="song_popularity <= 129113.0\nmse = 0.055\nsamples = 3\nvalue = 0.324"] ;
961 -> 962 ;
963 [label="song_popularity <= 129072.5\nmse = 0.013\nsamples = 2\nvalue = 0.476"] ;
962 -> 963 ;
964 [label="mse = 0.0\nsamples = 1\nvalue = 0.363"] ;
963 -> 964 ;
965 [label="mse = -0.0\nsamples = 1\nvalue = 0.589"] ;
963 -> 965 ;
966 [label="mse = -0.0\nsamples = 1\nvalue = 0.021"] ;
962 -> 966 ;
967 [label="song_popularity <= 129173.0\nmse = 0.021\nsamples = 3\nvalue = 0.654"] ;
961 -> 967 ;
968 [label="mse = 0.0\nsamples = 1\nvalue = 0.848"] ;
967 -> 968 ;
969 [label="song_popularity <= 129273.0\nmse = 0.004\nsamples = 2\nvalue = 0.558"] ;
967 -> 969 ;
970 [label="mse = 0.0\nsamples = 1\nvalue = 0.62"] ;
969 -> 970 ;
971 [label="mse = 0.0\nsamples = 1\nvalue = 0.495"] ;
969 -> 971 ;
972 [label="song_popularity <= 129347.0\nmse = 0.051\nsamples = 2\nvalue = 0.263"] ;
960 -> 972 ;
973 [label="mse = 0.0\nsamples = 1\nvalue = 0.037"] ;
972 -> 973 ;
974 [label="mse = -0.0\nsamples = 1\nvalue = 0.489"] ;
972 -> 974 ;
975 [label="song_popularity <= 129556.0\nmse = 0.03\nsamples = 4\nvalue = 0.701"] ;
457 -> 975 ;
976 [label="song_popularity <= 129498.0\nmse = 0.001\nsamples = 2\nvalue = 0.791"] ;
975 -> 976 ;
977 [label="mse = 0.0\nsamples = 1\nvalue = 0.766"] ;
976 -> 977 ;
978 [label="mse = -0.0\nsamples = 1\nvalue = 0.816"] ;
976 -> 978 ;
979 [label="song_popularity <= 129585.0\nmse = 0.043\nsamples = 2\nvalue = 0.611"] ;
975 -> 979 ;
980 [label="mse = 0.0\nsamples = 1\nvalue = 0.404"] ;
979 -> 980 ;
981 [label="mse = 0.0\nsamples = 1\nvalue = 0.818"] ;
979 -> 981 ;
982 [label="song_popularity <= 129673.0\nmse = 0.002\nsamples = 2\nvalue = 0.101"] ;
456 -> 982 ;
983 [label="mse = 0.0\nsamples = 1\nvalue = 0.057"] ;
982 -> 983 ;
984 [label="mse = -0.0\nsamples = 1\nvalue = 0.145"] ;
982 -> 984 ;
985 [label="song_popularity <= 130227.0\nmse = 0.085\nsamples = 12\nvalue = 0.645"] ;
455 -> 985 ;
986 [label="song_popularity <= 130093.5\nmse = 0.067\nsamples = 7\nvalue = 0.748"] ;
985 -> 986 ;
987 [label="song_popularity <= 130046.5\nmse = 0.081\nsamples = 4\nvalue = 0.628"] ;
986 -> 987 ;
988 [label="song_popularity <= 129955.5\nmse = 0.001\nsamples = 3\nvalue = 0.792"] ;
987 -> 988 ;
989 [label="song_popularity <= 129848.5\nmse = 0.0\nsamples = 2\nvalue = 0.776"] ;
988 -> 989 ;
990 [label="mse = 0.0\nsamples = 1\nvalue = 0.786"] ;
989 -> 990 ;
991 [label="mse = -0.0\nsamples = 1\nvalue = 0.767"] ;
989 -> 991 ;
992 [label="mse = -0.0\nsamples = 1\nvalue = 0.824"] ;
988 -> 992 ;
993 [label="mse = -0.0\nsamples = 1\nvalue = 0.135"] ;
987 -> 993 ;
994 [label="song_popularity <= 130151.0\nmse = 0.003\nsamples = 3\nvalue = 0.907"] ;
986 -> 994 ;
995 [label="song_popularity <= 130113.5\nmse = 0.003\nsamples = 2\nvalue = 0.886"] ;
994 -> 995 ;
996 [label="mse = 0.0\nsamples = 1\nvalue = 0.941"] ;
995 -> 996 ;
997 [label="mse = 0.0\nsamples = 1\nvalue = 0.83"] ;
995 -> 997 ;
998 [label="mse = -0.0\nsamples = 1\nvalue = 0.951"] ;
994 -> 998 ;
999 [label="song_popularity <= 130340.0\nmse = 0.075\nsamples = 5\nvalue = 0.502"] ;
985 -> 999 ;
1000 [label="song_popularity <= 130306.5\nmse = 0.043\nsamples = 4\nvalue = 0.401"] ;
999 -> 1000 ;
1001 [label="song_popularity <= 130289.0\nmse = 0.003\nsamples = 3\nvalue = 0.517"] ;
1000 -> 1001 ;
1002 [label="mse = 0.0\nsamples = 1\nvalue = 0.444"] ;
1001 -> 1002 ;
1003 [label="mse = 0.001\nsamples = 2\nvalue = 0.554"] ;
1001 -> 1003 ;
1004 [label="mse = 0.0\nsamples = 1\nvalue = 0.052"] ;
1000 -> 1004 ;
1005 [label="mse = 0.0\nsamples = 1\nvalue = 0.905"] ;
999 -> 1005 ;
1006 [label="song_popularity <= 134974.5\nmse = 0.112\nsamples = 184\nvalue = 0.45"] ;
454 -> 1006 ;
1007 [label="song_popularity <= 134825.5\nmse = 0.099\nsamples = 100\nvalue = 0.398"] ;
1006 -> 1007 ;
1008 [label="song_popularity <= 134683.5\nmse = 0.1\nsamples = 95\nvalue = 0.413"] ;
1007 -> 1008 ;
1009 [label="song_popularity <= 130495.5\nmse = 0.098\nsamples = 90\nvalue = 0.395"] ;
1008 -> 1009 ;
1010 [label="song_popularity <= 130467.0\nmse = 0.004\nsamples = 5\nvalue = 0.143"] ;
1009 -> 1010 ;
1011 [label="song_popularity <= 130429.0\nmse = 0.001\nsamples = 2\nvalue = 0.094"] ;
1010 -> 1011 ;
1012 [label="mse = 0.0\nsamples = 1\nvalue = 0.064"] ;
1011 -> 1012 ;
1013 [label="mse = 0.0\nsamples = 1\nvalue = 0.124"] ;
1011 -> 1013 ;
1014 [label="song_popularity <= 130482.0\nmse = 0.004\nsamples = 3\nvalue = 0.175"] ;
1010 -> 1014 ;
1015 [label="mse = 0.002\nsamples = 2\nvalue = 0.207"] ;
1014 -> 1015 ;
1016 [label="mse = 0.0\nsamples = 1\nvalue = 0.112"] ;
1014 -> 1016 ;
1017 [label="song_popularity <= 131994.0\nmse = 0.099\nsamples = 85\nvalue = 0.409"] ;
1009 -> 1017 ;
1018 [label="song_popularity <= 131970.5\nmse = 0.098\nsamples = 23\nvalue = 0.507"] ;
1017 -> 1018 ;
1019 [label="song_popularity <= 130910.5\nmse = 0.092\nsamples = 22\nvalue = 0.484"] ;
1018 -> 1019 ;
1020 [label="song_popularity <= 130704.0\nmse = 0.038\nsamples = 6\nvalue = 0.613"] ;
1019 -> 1020 ;
1021 [label="song_popularity <= 130586.0\nmse = 0.003\nsamples = 2\nvalue = 0.393"] ;
1020 -> 1021 ;
1022 [label="mse = 0.0\nsamples = 1\nvalue = 0.449"] ;
1021 -> 1022 ;
1023 [label="mse = -0.0\nsamples = 1\nvalue = 0.337"] ;
1021 -> 1023 ;
1024 [label="song_popularity <= 130744.0\nmse = 0.019\nsamples = 4\nvalue = 0.724"] ;
1020 -> 1024 ;
1025 [label="mse = 0.0\nsamples = 1\nvalue = 0.952"] ;
1024 -> 1025 ;
1026 [label="song_popularity <= 130859.0\nmse = 0.002\nsamples = 3\nvalue = 0.647"] ;
1024 -> 1026 ;
1027 [label="song_popularity <= 130786.0\nmse = 0.001\nsamples = 2\nvalue = 0.619"] ;
1026 -> 1027 ;
1028 [label="mse = 0.0\nsamples = 1\nvalue = 0.655"] ;
1027 -> 1028 ;
1029 [label="mse = 0.0\nsamples = 1\nvalue = 0.583"] ;
1027 -> 1029 ;
1030 [label="mse = 0.0\nsamples = 1\nvalue = 0.704"] ;
1026 -> 1030 ;
1031 [label="song_popularity <= 130931.0\nmse = 0.103\nsamples = 16\nvalue = 0.436"] ;
1019 -> 1031 ;
1032 [label="mse = 0.0\nsamples = 2\nvalue = 0.103"] ;
1031 -> 1032 ;
1033 [label="song_popularity <= 131696.0\nmse = 0.1\nsamples = 14\nvalue = 0.484"] ;
1031 -> 1033 ;
1034 [label="song_popularity <= 131587.5\nmse = 0.107\nsamples = 12\nvalue = 0.519"] ;
1033 -> 1034 ;
1035 [label="song_popularity <= 131300.5\nmse = 0.097\nsamples = 11\nvalue = 0.479"] ;
1034 -> 1035 ;
1036 [label="song_popularity <= 131221.0\nmse = 0.109\nsamples = 6\nvalue = 0.551"] ;
1035 -> 1036 ;
1037 [label="song_popularity <= 131112.0\nmse = 0.084\nsamples = 5\nvalue = 0.462"] ;
1036 -> 1037 ;
1038 [label="song_popularity <= 131051.5\nmse = 0.058\nsamples = 3\nvalue = 0.358"] ;
1037 -> 1038 ;
1039 [label="song_popularity <= 130986.0\nmse = 0.0\nsamples = 2\nvalue = 0.528"] ;
1038 -> 1039 ;
1040 [label="mse = 0.0\nsamples = 1\nvalue = 0.516"] ;
1039 -> 1040 ;
1041 [label="mse = 0.0\nsamples = 1\nvalue = 0.541"] ;
1039 -> 1041 ;
1042 [label="mse = -0.0\nsamples = 1\nvalue = 0.016"] ;
1038 -> 1042 ;
1043 [label="song_popularity <= 131161.0\nmse = 0.082\nsamples = 2\nvalue = 0.618"] ;
1037 -> 1043 ;
1044 [label="mse = 0.0\nsamples = 1\nvalue = 0.905"] ;
1043 -> 1044 ;
1045 [label="mse = -0.0\nsamples = 1\nvalue = 0.332"] ;
1043 -> 1045 ;
1046 [label="mse = 0.0\nsamples = 1\nvalue = 0.994"] ;
1036 -> 1046 ;
1047 [label="song_popularity <= 131380.0\nmse = 0.068\nsamples = 5\nvalue = 0.393"] ;
1035 -> 1047 ;
1048 [label="song_popularity <= 131340.5\nmse = 0.009\nsamples = 2\nvalue = 0.15"] ;
1047 -> 1048 ;
1049 [label="mse = 0.0\nsamples = 1\nvalue = 0.246"] ;
1048 -> 1049 ;
1050 [label="mse = -0.0\nsamples = 1\nvalue = 0.055"] ;
1048 -> 1050 ;
1051 [label="song_popularity <= 131430.5\nmse = 0.041\nsamples = 3\nvalue = 0.555"] ;
1047 -> 1051 ;
1052 [label="mse = 0.0\nsamples = 1\nvalue = 0.805"] ;
1051 -> 1052 ;
1053 [label="song_popularity <= 131477.5\nmse = 0.015\nsamples = 2\nvalue = 0.43"] ;
1051 -> 1053 ;
1054 [label="mse = 0.0\nsamples = 1\nvalue = 0.307"] ;
1053 -> 1054 ;
1055 [label="mse = -0.0\nsamples = 1\nvalue = 0.553"] ;
1053 -> 1055 ;
1056 [label="mse = -0.0\nsamples = 1\nvalue = 0.963"] ;
1034 -> 1056 ;
1057 [label="song_popularity <= 131832.0\nmse = 0.005\nsamples = 2\nvalue = 0.27"] ;
1033 -> 1057 ;
1058 [label="mse = 0.0\nsamples = 1\nvalue = 0.34"] ;
1057 -> 1058 ;
1059 [label="mse = -0.0\nsamples = 1\nvalue = 0.2"] ;
1057 -> 1059 ;
1060 [label="mse = 0.0\nsamples = 1\nvalue = 0.994"] ;
1018 -> 1060 ;
1061 [label="song_popularity <= 133246.5\nmse = 0.094\nsamples = 62\nvalue = 0.373"] ;
1017 -> 1061 ;
1062 [label="song_popularity <= 132990.5\nmse = 0.089\nsamples = 27\nvalue = 0.311"] ;
1061 -> 1062 ;
1063 [label="song_popularity <= 132890.5\nmse = 0.083\nsamples = 18\nvalue = 0.372"] ;
1062 -> 1063 ;
1064 [label="song_popularity <= 132639.5\nmse = 0.072\nsamples = 17\nvalue = 0.341"] ;
1063 -> 1064 ;
1065 [label="song_popularity <= 132269.0\nmse = 0.067\nsamples = 15\nvalue = 0.382"] ;
1064 -> 1065 ;
1066 [label="song_popularity <= 132019.0\nmse = 0.026\nsamples = 6\nvalue = 0.225"] ;
1065 -> 1066 ;
1067 [label="mse = 0.0\nsamples = 2\nvalue = 0.384"] ;
1066 -> 1067 ;
1068 [label="song_popularity <= 132108.0\nmse = 0.02\nsamples = 4\nvalue = 0.145"] ;
1066 -> 1068 ;
1069 [label="mse = 0.0\nsamples = 1\nvalue = 0.012"] ;
1068 -> 1069 ;
1070 [label="song_popularity <= 132182.5\nmse = 0.019\nsamples = 3\nvalue = 0.19"] ;
1068 -> 1070 ;
1071 [label="mse = 0.0\nsamples = 1\nvalue = 0.326"] ;
1070 -> 1071 ;
1072 [label="song_popularity <= 132209.5\nmse = 0.014\nsamples = 2\nvalue = 0.122"] ;
1070 -> 1072 ;
1073 [label="mse = 0.0\nsamples = 1\nvalue = 0.004"] ;
1072 -> 1073 ;
1074 [label="mse = 0.0\nsamples = 1\nvalue = 0.24"] ;
1072 -> 1074 ;
1075 [label="song_popularity <= 132518.5\nmse = 0.066\nsamples = 9\nvalue = 0.487"] ;
1065 -> 1075 ;
1076 [label="song_popularity <= 132366.5\nmse = 0.024\nsamples = 5\nvalue = 0.632"] ;
1075 -> 1076 ;
1077 [label="song_popularity <= 132313.0\nmse = 0.001\nsamples = 2\nvalue = 0.452"] ;
1076 -> 1077 ;
1078 [label="mse = 0.0\nsamples = 1\nvalue = 0.417"] ;
1077 -> 1078 ;
1079 [label="mse = -0.0\nsamples = 1\nvalue = 0.488"] ;
1077 -> 1079 ;
1080 [label="song_popularity <= 132430.0\nmse = 0.004\nsamples = 3\nvalue = 0.752"] ;
1076 -> 1080 ;
1081 [label="mse = 0.0\nsamples = 1\nvalue = 0.837"] ;
1080 -> 1081 ;
1082 [label="song_popularity <= 132450.0\nmse = 0.0\nsamples = 2\nvalue = 0.71"] ;
1080 -> 1082 ;
1083 [label="mse = 0.0\nsamples = 1\nvalue = 0.711"] ;
1082 -> 1083 ;
1084 [label="mse = 0.0\nsamples = 1\nvalue = 0.709"] ;
1082 -> 1084 ;
1085 [label="song_popularity <= 132625.0\nmse = 0.059\nsamples = 4\nvalue = 0.306"] ;
1075 -> 1085 ;
1086 [label="song_popularity <= 132590.5\nmse = 0.016\nsamples = 3\nvalue = 0.181"] ;
1085 -> 1086 ;
1087 [label="mse = 0.0\nsamples = 1\nvalue = 0.009"] ;
1086 -> 1087 ;
1088 [label="song_popularity <= 132610.5\nmse = 0.002\nsamples = 2\nvalue = 0.266"] ;
1086 -> 1088 ;
1089 [label="mse = 0.0\nsamples = 1\nvalue = 0.309"] ;
1088 -> 1089 ;
1090 [label="mse = 0.0\nsamples = 1\nvalue = 0.224"] ;
1088 -> 1090 ;
1091 [label="mse = 0.0\nsamples = 1\nvalue = 0.683"] ;
1085 -> 1091 ;
1092 [label="song_popularity <= 132733.0\nmse = 0.001\nsamples = 2\nvalue = 0.031"] ;
1064 -> 1092 ;
1093 [label="mse = 0.0\nsamples = 1\nvalue = 0.007"] ;
1092 -> 1093 ;
1094 [label="mse = 0.0\nsamples = 1\nvalue = 0.054"] ;
1092 -> 1094 ;
1095 [label="mse = 0.0\nsamples = 1\nvalue = 0.89"] ;
1063 -> 1095 ;
1096 [label="song_popularity <= 133079.5\nmse = 0.079\nsamples = 9\nvalue = 0.19"] ;
1062 -> 1096 ;
1097 [label="song_popularity <= 133034.5\nmse = 0.002\nsamples = 3\nvalue = 0.037"] ;
1096 -> 1097 ;
1098 [label="mse = 0.0\nsamples = 1\nvalue = 0.001"] ;
1097 -> 1098 ;
1099 [label="song_popularity <= 133061.0\nmse = 0.001\nsamples = 2\nvalue = 0.056"] ;
1097 -> 1099 ;
1100 [label="mse = 0.0\nsamples = 1\nvalue = 0.091"] ;
1099 -> 1100 ;
1101 [label="mse = -0.0\nsamples = 1\nvalue = 0.02"] ;
1099 -> 1101 ;
1102 [label="song_popularity <= 133106.5\nmse = 0.1\nsamples = 6\nvalue = 0.267"] ;
1096 -> 1102 ;
1103 [label="mse = 0.0\nsamples = 1\nvalue = 0.757"] ;
1102 -> 1103 ;
1104 [label="song_popularity <= 133164.0\nmse = 0.062\nsamples = 5\nvalue = 0.169"] ;
1102 -> 1104 ;
1105 [label="song_popularity <= 133126.5\nmse = 0.083\nsamples = 3\nvalue = 0.259"] ;
1104 -> 1105 ;
1106 [label="song_popularity <= 133122.5\nmse = 0.003\nsamples = 2\nvalue = 0.058"] ;
1105 -> 1106 ;
1107 [label="mse = 0.0\nsamples = 1\nvalue = 0.108"] ;
1106 -> 1107 ;
1108 [label="mse = -0.0\nsamples = 1\nvalue = 0.007"] ;
1106 -> 1108 ;
1109 [label="mse = 0.0\nsamples = 1\nvalue = 0.662"] ;
1105 -> 1109 ;
1110 [label="mse = 0.0\nsamples = 2\nvalue = 0.034"] ;
1104 -> 1110 ;
1111 [label="song_popularity <= 133873.0\nmse = 0.093\nsamples = 35\nvalue = 0.421"] ;
1061 -> 1111 ;
1112 [label="song_popularity <= 133407.0\nmse = 0.053\nsamples = 10\nvalue = 0.649"] ;
1111 -> 1112 ;
1113 [label="song_popularity <= 133313.0\nmse = 0.011\nsamples = 3\nvalue = 0.477"] ;
1112 -> 1113 ;
1114 [label="mse = 0.0\nsamples = 1\nvalue = 0.62"] ;
1113 -> 1114 ;
1115 [label="song_popularity <= 133340.5\nmse = 0.002\nsamples = 2\nvalue = 0.406"] ;
1113 -> 1115 ;
1116 [label="mse = 0.0\nsamples = 1\nvalue = 0.445"] ;
1115 -> 1116 ;
1117 [label="mse = 0.0\nsamples = 1\nvalue = 0.367"] ;
1115 -> 1117 ;
1118 [label="song_popularity <= 133657.0\nmse = 0.053\nsamples = 7\nvalue = 0.722"] ;
1112 -> 1118 ;
1119 [label="song_popularity <= 133471.5\nmse = 0.012\nsamples = 4\nvalue = 0.832"] ;
1118 -> 1119 ;
1120 [label="mse = 0.0\nsamples = 1\nvalue = 0.957"] ;
1119 -> 1120 ;
1121 [label="song_popularity <= 133565.5\nmse = 0.008\nsamples = 3\nvalue = 0.79"] ;
1119 -> 1121 ;
1122 [label="song_popularity <= 133504.0\nmse = 0.001\nsamples = 2\nvalue = 0.726"] ;
1121 -> 1122 ;
1123 [label="mse = 0.0\nsamples = 1\nvalue = 0.751"] ;
1122 -> 1123 ;
1124 [label="mse = 0.0\nsamples = 1\nvalue = 0.702"] ;
1122 -> 1124 ;
1125 [label="mse = -0.0\nsamples = 1\nvalue = 0.917"] ;
1121 -> 1125 ;
1126 [label="song_popularity <= 133780.0\nmse = 0.071\nsamples = 3\nvalue = 0.576"] ;
1118 -> 1126 ;
1127 [label="mse = 0.0\nsamples = 1\nvalue = 0.24"] ;
1126 -> 1127 ;
1128 [label="song_popularity <= 133856.0\nmse = 0.022\nsamples = 2\nvalue = 0.744"] ;
1126 -> 1128 ;
1129 [label="mse = 0.0\nsamples = 1\nvalue = 0.892"] ;
1128 -> 1129 ;
1130 [label="mse = -0.0\nsamples = 1\nvalue = 0.595"] ;
1128 -> 1130 ;
1131 [label="song_popularity <= 134080.5\nmse = 0.08\nsamples = 25\nvalue = 0.33"] ;
1111 -> 1131 ;
1132 [label="song_popularity <= 133980.0\nmse = 0.007\nsamples = 7\nvalue = 0.157"] ;
1131 -> 1132 ;
1133 [label="song_popularity <= 133886.5\nmse = 0.001\nsamples = 4\nvalue = 0.118"] ;
1132 -> 1133 ;
1134 [label="mse = 0.0\nsamples = 1\nvalue = 0.084"] ;
1133 -> 1134 ;
1135 [label="song_popularity <= 133927.0\nmse = 0.0\nsamples = 3\nvalue = 0.129"] ;
1133 -> 1135 ;
1136 [label="song_popularity <= 133907.0\nmse = 0.0\nsamples = 2\nvalue = 0.144"] ;
1135 -> 1136 ;
1137 [label="mse = 0.0\nsamples = 1\nvalue = 0.153"] ;
1136 -> 1137 ;
1138 [label="mse = -0.0\nsamples = 1\nvalue = 0.135"] ;
1136 -> 1138 ;
1139 [label="mse = 0.0\nsamples = 1\nvalue = 0.1"] ;
1135 -> 1139 ;
1140 [label="song_popularity <= 134046.5\nmse = 0.011\nsamples = 3\nvalue = 0.208"] ;
1132 -> 1140 ;
1141 [label="mse = 0.0\nsamples = 1\nvalue = 0.355"] ;
1140 -> 1141 ;
1142 [label="song_popularity <= 134067.0\nmse = 0.0\nsamples = 2\nvalue = 0.135"] ;
1140 -> 1142 ;
1143 [label="mse = 0.0\nsamples = 1\nvalue = 0.147"] ;
1142 -> 1143 ;
1144 [label="mse = -0.0\nsamples = 1\nvalue = 0.123"] ;
1142 -> 1144 ;
1145 [label="song_popularity <= 134099.5\nmse = 0.093\nsamples = 18\nvalue = 0.398"] ;
1131 -> 1145 ;
1146 [label="mse = 0.0\nsamples = 1\nvalue = 0.879"] ;
1145 -> 1146 ;
1147 [label="song_popularity <= 134226.5\nmse = 0.084\nsamples = 17\nvalue = 0.369"] ;
1145 -> 1147 ;
1148 [label="song_popularity <= 134166.5\nmse = 0.034\nsamples = 5\nvalue = 0.256"] ;
1147 -> 1148 ;
1149 [label="song_popularity <= 134119.5\nmse = 0.022\nsamples = 4\nvalue = 0.319"] ;
1148 -> 1149 ;
1150 [label="mse = 0.003\nsamples = 2\nvalue = 0.264"] ;
1149 -> 1150 ;
1151 [label="mse = 0.036\nsamples = 2\nvalue = 0.373"] ;
1149 -> 1151 ;
1152 [label="mse = -0.0\nsamples = 1\nvalue = 0.005"] ;
1148 -> 1152 ;
1153 [label="song_popularity <= 134513.0\nmse = 0.097\nsamples = 12\nvalue = 0.416"] ;
1147 -> 1153 ;
1154 [label="song_popularity <= 134413.0\nmse = 0.107\nsamples = 7\nvalue = 0.523"] ;
1153 -> 1154 ;
1155 [label="song_popularity <= 134301.0\nmse = 0.01\nsamples = 3\nvalue = 0.365"] ;
1154 -> 1155 ;
1156 [label="mse = 0.0\nsamples = 1\nvalue = 0.493"] ;
1155 -> 1156 ;
1157 [label="song_popularity <= 134367.5\nmse = 0.003\nsamples = 2\nvalue = 0.302"] ;
1155 -> 1157 ;
1158 [label="mse = 0.0\nsamples = 1\nvalue = 0.243"] ;
1157 -> 1158 ;
1159 [label="mse = 0.0\nsamples = 1\nvalue = 0.36"] ;
1157 -> 1159 ;
1160 [label="song_popularity <= 134459.5\nmse = 0.146\nsamples = 4\nvalue = 0.642"] ;
1154 -> 1160 ;
1161 [label="song_popularity <= 134446.5\nmse = 0.018\nsamples = 2\nvalue = 0.852"] ;
1160 -> 1161 ;
1162 [label="mse = 0.0\nsamples = 1\nvalue = 0.984"] ;
1161 -> 1162 ;
1163 [label="mse = -0.0\nsamples = 1\nvalue = 0.719"] ;
1161 -> 1163 ;
1164 [label="mse = 0.187\nsamples = 2\nvalue = 0.433"] ;
1160 -> 1164 ;
1165 [label="song_popularity <= 134573.0\nmse = 0.045\nsamples = 5\nvalue = 0.267"] ;
1153 -> 1165 ;
1166 [label="mse = 0.0\nsamples = 1\nvalue = 0.051"] ;
1165 -> 1166 ;
1167 [label="song_popularity <= 134589.0\nmse = 0.042\nsamples = 4\nvalue = 0.321"] ;
1165 -> 1167 ;
1168 [label="mse = 0.0\nsamples = 1\nvalue = 0.6"] ;
1167 -> 1168 ;
1169 [label="song_popularity <= 134610.5\nmse = 0.021\nsamples = 3\nvalue = 0.228"] ;
1167 -> 1169 ;
1170 [label="mse = 0.0\nsamples = 1\nvalue = 0.05"] ;
1169 -> 1170 ;
1171 [label="song_popularity <= 134645.0\nmse = 0.008\nsamples = 2\nvalue = 0.316"] ;
1169 -> 1171 ;
1172 [label="mse = 0.0\nsamples = 1\nvalue = 0.229"] ;
1171 -> 1172 ;
1173 [label="mse = 0.0\nsamples = 1\nvalue = 0.404"] ;
1171 -> 1173 ;
1174 [label="song_popularity <= 134810.0\nmse = 0.025\nsamples = 5\nvalue = 0.747"] ;
1008 -> 1174 ;
1175 [label="song_popularity <= 134764.5\nmse = 0.015\nsamples = 4\nvalue = 0.69"] ;
1174 -> 1175 ;
1176 [label="song_popularity <= 134724.5\nmse = 0.013\nsamples = 2\nvalue = 0.78"] ;
1175 -> 1176 ;
1177 [label="mse = 0.0\nsamples = 1\nvalue = 0.666"] ;
1176 -> 1177 ;
1178 [label="mse = 0.0\nsamples = 1\nvalue = 0.895"] ;
1176 -> 1178 ;
1179 [label="song_popularity <= 134793.0\nmse = 0.0\nsamples = 2\nvalue = 0.598"] ;
1175 -> 1179 ;
1180 [label="mse = 0.0\nsamples = 1\nvalue = 0.618"] ;
1179 -> 1180 ;
1181 [label="mse = -0.0\nsamples = 1\nvalue = 0.579"] ;
1179 -> 1181 ;
1182 [label="mse = -0.0\nsamples = 1\nvalue = 0.975"] ;
1174 -> 1182 ;
1183 [label="song_popularity <= 134842.0\nmse = 0.007\nsamples = 5\nvalue = 0.118"] ;
1007 -> 1183 ;
1184 [label="mse = 0.0\nsamples = 1\nvalue = 0.002"] ;
1183 -> 1184 ;
1185 [label="song_popularity <= 134919.5\nmse = 0.004\nsamples = 4\nvalue = 0.147"] ;
1183 -> 1185 ;
1186 [label="song_popularity <= 134879.5\nmse = 0.005\nsamples = 3\nvalue = 0.136"] ;
1185 -> 1186 ;
1187 [label="mse = 0.0\nsamples = 1\nvalue = 0.119"] ;
1186 -> 1187 ;
1188 [label="mse = 0.008\nsamples = 2\nvalue = 0.145"] ;
1186 -> 1188 ;
1189 [label="mse = 0.0\nsamples = 1\nvalue = 0.181"] ;
1185 -> 1189 ;
1190 [label="song_popularity <= 136785.5\nmse = 0.12\nsamples = 84\nvalue = 0.511"] ;
1006 -> 1190 ;
1191 [label="song_popularity <= 136469.5\nmse = 0.112\nsamples = 41\nvalue = 0.592"] ;
1190 -> 1191 ;
1192 [label="song_popularity <= 136413.0\nmse = 0.114\nsamples = 35\nvalue = 0.562"] ;
1191 -> 1192 ;
1193 [label="song_popularity <= 136338.5\nmse = 0.111\nsamples = 31\nvalue = 0.591"] ;
1192 -> 1193 ;
1194 [label="song_popularity <= 136077.5\nmse = 0.112\nsamples = 29\nvalue = 0.571"] ;
1193 -> 1194 ;
1195 [label="song_popularity <= 135557.5\nmse = 0.107\nsamples = 22\nvalue = 0.619"] ;
1194 -> 1195 ;
1196 [label="song_popularity <= 135315.0\nmse = 0.109\nsamples = 8\nvalue = 0.467"] ;
1195 -> 1196 ;
1197 [label="song_popularity <= 135089.5\nmse = 0.028\nsamples = 4\nvalue = 0.717"] ;
1196 -> 1197 ;
1198 [label="song_popularity <= 135052.5\nmse = 0.031\nsamples = 2\nvalue = 0.818"] ;
1197 -> 1198 ;
1199 [label="mse = 0.0\nsamples = 1\nvalue = 0.641"] ;
1198 -> 1199 ;
1200 [label="mse = 0.0\nsamples = 1\nvalue = 0.995"] ;
1198 -> 1200 ;
1201 [label="song_popularity <= 135187.0\nmse = 0.004\nsamples = 2\nvalue = 0.616"] ;
1197 -> 1201 ;
1202 [label="mse = 0.0\nsamples = 1\nvalue = 0.556"] ;
1201 -> 1202 ;
1203 [label="mse = 0.0\nsamples = 1\nvalue = 0.675"] ;
1201 -> 1203 ;
1204 [label="song_popularity <= 135459.5\nmse = 0.066\nsamples = 4\nvalue = 0.217"] ;
1196 -> 1204 ;
1205 [label="song_popularity <= 135365.0\nmse = 0.078\nsamples = 2\nvalue = 0.38"] ;
1204 -> 1205 ;
1206 [label="mse = 0.0\nsamples = 1\nvalue = 0.101"] ;
1205 -> 1206 ;
1207 [label="mse = 0.0\nsamples = 1\nvalue = 0.659"] ;
